<?xml version="1.0"?>
<opencv_storage>
<opencv_ml_svm>
  <format>3</format>
  <svmType>C_SVC</svmType>
  <kernel>
    <type>LINEAR</type></kernel>
  <C>1.0000000000000001e-01</C>
  <term_criteria><epsilon>1.1920928955078125e-07</epsilon>
    <iterations>1000</iterations></term_criteria>
  <var_count>576</var_count>
  <class_count>10</class_count>
  <class_labels type_id="opencv-matrix">
    <rows>10</rows>
    <cols>1</cols>
    <dt>i</dt>
    <data>
      0 1 2 3 4 5 6 7 8 9</data></class_labels>
  <sv_total>45</sv_total>
  <support_vectors>
    <_>
      0. 0. 0. 0. 0. 0. 0. 0. 0. 0. 0. 0. -2.39512790e-03
      -2.82092839e-02 -4.65719290e-02 -4.84348051e-02 -4.71041799e-02
      -2.84754094e-02 -1.33062655e-03 0. 0. 0. 0. 0. 0. 0. 0. 0. 0. 0.
      0. 0. 0. 0. 0. -1.30401412e-02 -5.00315577e-02 -6.75958320e-02
      -6.78619519e-02 -5.77491932e-02 -2.23545264e-02 0. 0. 0. 0. 0. 0.
      0. 0. 0. 0. 0. 0. 0. 1.20866336e-02 3.32382396e-02 4.14974429e-02
      4.76849228e-02 3.19410414e-02 -6.11488009e-03 8.48282501e-03
      1.38700111e-02 3.91869992e-02 4.84405570e-02 3.18281353e-02
      1.49068478e-02 0. 0. -1.05475727e-03 -6.02718396e-03
      -1.55199999e-02 -2.09444650e-02 3.97709757e-02 1.97232552e-02
      -4.10430506e-02 -9.45548899e-03 5.43433875e-02 7.28762299e-02
      5.81120737e-02 1.54916393e-02 1.04524922e-02 -1.38607286e-02
      -4.17847037e-02 -3.92996222e-02 -4.82494310e-02 3.67899537e-02
      1.36515163e-02 7.56635144e-02 1.17858261e-01 1.58379763e-01
      1.58233821e-01 1.26937285e-01 5.02446890e-02 7.75048137e-02
      1.60175804e-02 -2.18464881e-02 3.74315083e-02 3.64716002e-03
      -6.54763728e-02 -3.29222381e-02 -4.11488041e-02 -8.43262896e-02
      -7.95636252e-02 -1.49349347e-02 -7.56386900e-03 4.14758222e-03
      -2.41950303e-02 1.01173250e-02 -7.89496899e-02 -2.19353661e-02
      3.49694230e-02 3.82002853e-02 3.64719220e-02 3.38193998e-02
      -5.81425950e-02 -1.62912048e-02 -6.54914975e-02 -3.99868935e-02
      -1.53719941e-02 -3.84232961e-02 3.74315083e-02 1.04611693e-02
      -4.96230125e-02 -4.97981980e-02 -6.07919171e-02 -8.25357959e-02
      -9.75255761e-03 -8.35898146e-03 -2.30851341e-02 -3.33964415e-02
      -4.39112112e-02 -1.03719328e-02 7.02405497e-02 3.27292867e-02
      2.83131748e-02 -1.86039892e-03 1.01926103e-02 -7.68776890e-03
      -4.24243622e-02 -5.98135106e-02 -8.80161673e-02 -2.53312867e-02
      -1.76921953e-02 -4.95887697e-02 3.88416164e-02 2.73375288e-02
      -1.23448810e-02 -3.62493023e-02 -6.22311570e-02 -1.77545415e-03
      -6.81405663e-02 -3.97776961e-02 -5.66305853e-02 -3.80345397e-02
      2.44821757e-02 1.10402415e-02 -3.58198723e-03 -5.07204570e-02
      -5.48425764e-02 -5.27375266e-02 -9.36787650e-02 -1.00331806e-01
      -7.20349029e-02 -2.75123604e-02 -1.00190356e-01 -2.20038630e-02
      -2.75277849e-02 -4.76803295e-02 6.14983328e-02 6.88971356e-02
      1.81511138e-02 -7.12186377e-03 8.11642930e-02 3.17737386e-02
      -2.59185955e-02 -2.43817884e-02 1.81992594e-02 1.36243673e-02
      5.32755442e-02 7.77461454e-02 5.58603890e-02 -1.13068586e-02
      -4.00508530e-02 3.35107185e-02 -3.87760135e-03 -2.84587163e-02
      1.49503201e-02 -1.70478206e-02 -4.47748043e-02 3.59658934e-02
      1.99572667e-02 -2.78617581e-03 7.40431771e-02 9.10759419e-02
      9.44604725e-02 9.67023894e-02 1.66507170e-01 1.09658964e-01
      6.10764697e-02 1.03687365e-02 2.47669592e-02 -2.53643165e-03
      4.27744910e-02 1.20513504e-02 -2.42971238e-02 -7.26892874e-02
      -5.52934334e-02 -1.90720782e-02 -6.61915392e-02 -3.60220149e-02
      7.29933800e-03 2.72000376e-02 3.45664471e-02 1.37102813e-01
      5.98998666e-02 -2.48352643e-02 4.29660827e-02 4.34678495e-02
      1.13645419e-02 2.29318365e-02 1.04477644e-01 8.86858776e-02
      5.55336243e-03 -3.99320237e-02 -2.87089334e-03 1.28410952e-02
      2.06649490e-02 -6.86760470e-02 -1.21174887e-01 -1.21643715e-01
      -5.24556860e-02 -3.94401774e-02 -1.20104082e-01 -6.08088747e-02
      4.99178134e-02 3.89859416e-02 -2.02335268e-02 5.82849383e-02
      4.77204956e-02 -8.11097324e-02 8.34609848e-03 1.29558519e-02
      -1.05037270e-02 3.69289964e-02 8.43869671e-02 8.79278854e-02
      1.63591560e-02 -1.79391298e-02 -1.15482407e-02 1.95778534e-02
      4.19273078e-02 -3.56168039e-02 -1.38201952e-01 -8.94423723e-02
      -4.63588983e-02 -4.68043350e-02 -5.21093942e-02 -2.37211939e-02
      2.62929685e-02 2.11308096e-02 -3.60492952e-02 8.96906573e-03
      -1.37989987e-02 -8.55344012e-02 7.49584520e-03 3.25834788e-02
      2.05072369e-02 1.33596957e-01 2.05484092e-01 2.40345851e-01
      1.59484357e-01 5.90507314e-02 3.07857413e-02 5.81698008e-02
      9.58727151e-02 -5.39140366e-02 -1.25601232e-01 -5.42322472e-02
      -4.15252186e-02 -7.94188753e-02 -3.65133956e-02 7.95158967e-02
      1.85400382e-01 1.12662829e-01 1.88484583e-02 5.65367863e-02
      9.38749090e-02 6.65819049e-02 3.48325558e-02 7.42609724e-02
      -2.70237960e-02 6.23070076e-02 9.09226164e-02 3.60211506e-02
      1.86985619e-02 -3.44300233e-02 -5.14876768e-02 3.81385572e-02
      1.11705303e-01 4.41778973e-02 -8.12225267e-02 -3.25280428e-02
      -7.28615969e-02 -1.28336787e-01 -1.21544942e-01 -6.71126544e-02
      2.75895577e-02 1.13711804e-02 -4.11792584e-02 7.56910518e-02
      1.14284113e-01 4.08664718e-02 7.11994693e-02 1.15436196e-01
      7.84476325e-02 9.63604748e-02 8.31418335e-02 6.63252845e-02
      9.20511559e-02 8.75098482e-02 -1.86198745e-02 -1.07580326e-01
      -1.03398949e-01 -1.38115451e-01 -5.26435021e-03 2.64643449e-02
      -4.23153192e-02 -5.29211126e-02 -3.03360187e-02 9.88632292e-02
      1.67695031e-01 1.71673179e-01 7.10581988e-02 1.14770681e-01
      1.45704851e-01 5.76972030e-02 3.21890786e-02 9.18479636e-02
      8.36724862e-02 1.26979247e-01 1.78014979e-01 1.88123599e-01
      8.54634270e-02 -4.63272221e-02 -9.27722305e-02 -3.89371030e-02
      1.49980877e-02 -7.39451125e-03 1.55718215e-02 -1.14009500e-01
      -1.70876935e-01 -1.82031766e-01 -1.10403985e-01 4.03910354e-02
      1.09895937e-01 1.00181952e-01 4.91485186e-02 6.73938245e-02
      4.70532179e-02 -3.25670056e-02 1.27993450e-02 3.99818756e-02
      3.13501358e-02 -2.89749075e-03 2.10709348e-02 1.23767979e-01
      8.45869556e-02 2.65814159e-02 -2.71163546e-02 -9.39067975e-02
      -1.17667787e-01 -8.10224488e-02 -4.74775992e-02 -8.99142623e-02
      -7.81681538e-02 -9.05104727e-02 -4.23586741e-02 -5.42960828e-03
      4.61227866e-03 -4.92627583e-02 -1.96875408e-02 1.00629725e-01
      1.28499463e-01 8.40916038e-02 4.07643989e-02 -2.44515426e-02
      -2.11745743e-02 -3.00658438e-02 3.07160150e-02 1.37398556e-01
      7.90643692e-02 2.13476140e-02 -2.15935195e-03 -4.34117429e-02
      -5.57273999e-02 -2.33336873e-02 -2.20081881e-02 -5.94615601e-02
      -3.38091457e-04 2.35526282e-02 6.66749924e-02 1.36705443e-01
      6.22146614e-02 4.75706905e-02 -1.41307004e-02 2.91081686e-02
      5.61644472e-02 1.33349923e-02 4.09803214e-03 -4.90820445e-02
      -1.51776358e-01 -1.36444107e-01 -6.57617524e-02 -4.38337401e-03
      -7.57321939e-02 -6.42905533e-02 7.44297430e-02 1.87325522e-01
      1.11728422e-01 6.38806373e-02 5.87495230e-02 3.64095196e-02
      7.86475092e-02 2.39621364e-02 -1.01607047e-01 -1.32202685e-01
      -3.25689353e-02 -6.81177303e-02 -1.14399061e-01 -1.09259447e-03
      5.19125164e-02 1.19733503e-02 1.06419064e-03 -1.11033712e-02
      -7.38626420e-02 2.67867860e-03 7.33079985e-02 8.32694843e-02
      5.30477613e-02 5.93050197e-02 1.93323046e-02 4.00068536e-02
      1.67706399e-03 -5.96744800e-03 -6.90158922e-03 -4.32556346e-02
      9.67025699e-04 -8.65529776e-02 -6.51725680e-02 -8.42533261e-03
      -3.78063619e-02 -9.02080908e-02 -1.48641586e-01 -7.77928978e-02
      -5.32224923e-02 -8.78428891e-02 0. -8.65007937e-03 -6.90414459e-02
      9.55552701e-03 2.18789726e-02 6.40188307e-02 3.30377631e-02
      3.62693965e-02 7.08695948e-02 9.76447165e-02 5.85603416e-02
      1.90244336e-02 2.38546710e-02 9.51191410e-03 6.51369691e-02
      -1.67773589e-02 -6.98394701e-02 -8.53642821e-02 -8.18223059e-02
      -8.95526111e-02 -1.04133382e-01 -2.54799724e-02 1.06820678e-02
      7.04500941e-04 0. -1.07299928e-02 -8.84697586e-02 -9.83505789e-03
      -4.50906373e-04 2.33612265e-02 2.03145724e-02 3.17859836e-02
      4.57138866e-02 6.65335953e-02 5.91099747e-02 2.37153098e-02
      1.90476719e-02 2.31681913e-02 3.25031653e-02 -6.53496385e-02
      -1.02005444e-01 -9.41735506e-02 -7.40814358e-02 -8.40172619e-02
      -1.01515405e-01 -3.17574106e-02 -2.14191177e-03 -2.66125309e-04 0.
      0. 0. 9.56760161e-03 2.45429780e-02 3.49425450e-02 3.50812078e-02
      3.38332579e-02 1.35887684e-02 1.94125262e-03 0. 0. 0. 0. 0. 0.
      1.67779680e-02 3.21693271e-02 3.52198668e-02 3.45265642e-02
      2.50976216e-02 9.70626250e-03 0. 0. 0. 0. 0. 0. 9.70626308e-04
      7.62634957e-03 2.24630646e-02 3.18920054e-02 3.53585258e-02
      3.53585258e-02 3.21693271e-02 3.06440592e-02 3.03667374e-02
      3.07827201e-02 3.24466489e-02 3.53585258e-02 3.53585258e-02
      3.16146836e-02 2.23244037e-02 8.59697536e-03 5.54643571e-04 0. 0.
      0. 0. 0. 0. 0. 0. 0. 0. 0. 0. 2.07991339e-03 6.37840107e-03
      8.04233178e-03 8.04233178e-03 8.04233178e-03 7.07170600e-03
      9.70626308e-04 0. 0. 0. 0. 0. 0. 0. 0.</_>
    <_>
      0. 0. 0. 0. 0. 0. 0. 0. 0. 0. 0. 0. 0. 0. 0. 0. 0. 0. 0. 0. 0. 0.
      0. 0. 0. 0. 0. 0. 0. 0. 0. 0. 0. 0. 0. 0. 0. 0. 0. 0. 0. 0. 0. 0.
      0. 0. 0. 0. 0. 0. 0. 0. 0. 0. 3.85009032e-03 3.83430044e-03
      -1.25017492e-02 -1.07810870e-02 -1.81410853e-02 -4.98367846e-02
      3.17186266e-02 3.22847813e-02 4.04359065e-02 7.56606273e-03
      3.86809674e-03 1.13553340e-02 -1.65025853e-02 -2.17534099e-02
      -2.17534099e-02 -2.70042326e-02 -3.82559970e-02 -2.66291741e-02
      6.07570261e-02 3.96111980e-02 4.44272906e-02 6.78474903e-02
      1.03725173e-01 6.66857213e-02 3.49639021e-02 3.42810713e-02
      6.24541193e-02 5.95370978e-02 4.23094258e-02 5.47595397e-02
      -3.59142274e-02 1.68064088e-02 -1.68265565e-03 5.78686930e-02
      1.15551226e-01 1.28747150e-01 1.77489921e-01 1.57806337e-01
      6.49035126e-02 2.05743387e-02 -4.68576811e-02 -7.76007697e-02
      5.71830869e-02 1.66784003e-02 -6.20028004e-04 -1.11339185e-02
      -4.98234220e-02 -4.15894017e-02 -3.68932914e-03 4.20407988e-02
      -3.47069241e-02 -8.72892793e-03 -6.54216437e-03 3.48665640e-02
      2.12595891e-02 1.99486986e-02 3.97464447e-02 1.65844131e-02
      -6.45452295e-04 -7.26945996e-02 -1.62294686e-01 3.39091569e-02
      2.52761692e-02 -5.29061370e-02 -6.58190027e-02 -9.52649340e-02
      5.71830869e-02 1.42822266e-02 -7.10716192e-03 6.07093330e-03
      2.73739789e-02 8.54892954e-02 1.19145446e-01 -4.56424989e-02
      -1.10377319e-01 2.47526122e-03 5.77980280e-02 1.25275627e-01
      1.31546810e-01 9.46696550e-02 6.23036660e-02 -1.11603821e-02
      3.98456864e-02 1.02742501e-01 -1.25923222e-02 -9.31701884e-02
      -1.61611915e-01 -7.74867386e-02 -4.41485979e-02 -7.40123019e-02
      5.28734885e-02 -9.59914550e-03 1.01995394e-02 -4.40514050e-02
      -1.22943260e-02 7.01298425e-03 2.34608445e-02 -1.65357757e-02
      -1.32607501e-02 1.79715995e-02 7.57673085e-02 8.90097320e-02
      -1.58495065e-02 -5.97246848e-02 -5.16407639e-02 -8.07075575e-02
      -1.10003762e-01 -1.24058366e-01 -7.89927170e-02 -4.75463569e-02
      -1.57553002e-01 3.78911407e-03 -5.16769337e-03 -6.20580986e-02
      6.07882403e-02 2.35050116e-02 9.04790908e-02 1.67684779e-02
      5.04723638e-02 -3.37291062e-02 5.82056306e-02 5.66798709e-02
      -5.49445711e-02 -1.59300640e-01 -9.69647840e-02 1.66431908e-02
      -2.83461008e-02 -2.66947281e-02 -7.43170176e-03 4.12780121e-02
      8.63247085e-03 -3.10307145e-02 -4.04143222e-02 -5.59791178e-02
      -8.54925737e-02 3.53130810e-02 -2.89595546e-03 -1.29044745e-02
      5.53941950e-02 9.25556011e-03 3.03146895e-02 5.72199561e-02
      1.14832759e-01 7.00334013e-02 1.96628749e-01 1.63694441e-01
      1.14847131e-01 1.22106105e-01 9.20589417e-02 1.12816282e-01
      3.36471722e-02 -1.01648616e-02 -1.17868550e-01 -9.59238335e-02
      -5.96460402e-02 -5.70872016e-02 -1.07362404e-01 -8.75384212e-02
      -1.14492187e-02 1.25357032e-01 4.49325331e-02 8.52353126e-02
      3.18811163e-02 -3.11270505e-02 -3.46639380e-02 1.21888228e-01
      1.60577357e-01 1.39498293e-01 7.81095475e-02 4.53422479e-02
      7.91382343e-02 6.32497296e-02 -6.00999128e-03 -5.30445129e-02
      -1.67603493e-01 -5.13999946e-02 -8.01895335e-02 -1.00690976e-01
      -1.38993442e-01 -9.07497555e-02 -1.12404697e-01 4.21316102e-02
      5.51713482e-02 4.89243083e-02 -1.46536864e-02 -7.11993054e-02
      6.67086467e-02 4.50223945e-02 -8.75520259e-02 -8.67207050e-02
      6.07950874e-02 1.00284383e-01 6.39328063e-02 2.11583953e-02
      1.89941134e-02 -7.75160864e-02 -9.76741537e-02 -7.24062398e-02
      -1.41021326e-01 -1.18179232e-01 -1.53124437e-01 -1.74352169e-01
      -1.09035440e-01 -1.58610567e-01 -6.63403347e-02 -8.71399976e-03
      -1.05495818e-01 1.18513154e-02 4.11270522e-02 2.13574432e-02
      7.83448070e-02 1.71381027e-01 1.24178149e-01 1.06018707e-01
      2.35712096e-01 2.96382308e-01 2.12558493e-01 2.93042529e-02
      -3.78181250e-03 -1.51347756e-01 -1.18307553e-01 -2.16945317e-02
      5.07887788e-02 3.98389548e-02 -2.31850334e-02 -1.26540929e-01
      -1.49584576e-01 4.14265739e-03 1.24567740e-01 1.60287935e-02
      -1.10275045e-01 2.79811528e-02 1.13082029e-01 8.98992866e-02
      8.57194811e-02 1.66629851e-01 1.13325506e-01 6.95662275e-02
      2.74270326e-02 -9.55125093e-02 1.64557368e-01 8.20662379e-02
      -4.62959036e-02 -4.13916707e-02 1.05229035e-01 5.67080304e-02
      -4.28637788e-02 -7.66135231e-02 -4.56110388e-02 -1.42906681e-01
      -7.37170177e-03 4.05418724e-02 1.31489355e-02 4.79814708e-02
      -3.84760126e-02 2.70035356e-01 2.85134375e-01 1.91998497e-01
      2.99009439e-02 6.70715347e-02 1.19114779e-01 1.59263298e-01
      6.81494623e-02 -1.22426795e-02 2.69165002e-02 7.44728511e-03
      -1.80458091e-02 -5.01450561e-02 1.11132278e-03 -9.45908763e-03
      -5.64808771e-03 -3.92830335e-02 2.70277867e-03 -8.69599432e-02
      3.33727300e-02 -9.30005088e-02 -1.79448366e-01 -2.52891928e-02
      -4.55133989e-02 -3.43740126e-03 6.63892552e-02 1.00183114e-01
      -1.45881262e-03 2.26083137e-02 1.32040411e-01 2.39409223e-01
      2.44598135e-01 1.13033399e-01 1.05813473e-01 2.38049254e-02
      1.99979581e-02 -3.21218520e-02 -5.75836152e-02 -1.34557337e-01
      -1.71852052e-01 -1.47908270e-01 -1.13743216e-01 -1.21195398e-01
      -8.13683048e-02 6.00649975e-02 1.51955932e-01 2.26839930e-01
      2.05534056e-01 1.16834410e-01 4.60829400e-02 8.60931873e-02
      5.66234477e-02 -6.94671944e-02 -2.10824572e-02 1.05936691e-01
      6.70212880e-02 2.43301466e-02 1.30858824e-01 3.28066573e-02
      1.22420099e-02 -2.02158764e-02 -8.48421901e-02 -5.82719445e-02
      -1.27786532e-01 -1.56787187e-01 -1.21673152e-01 -1.43341869e-01
      -7.61285275e-02 -8.99814218e-02 9.99473035e-02 1.29473686e-01
      7.17995539e-02 -2.63623167e-02 5.21730781e-02 1.35160148e-01
      -4.52493280e-02 -1.07380204e-01 -4.94927056e-02 1.40669802e-03
      -1.42136989e-02 4.19202484e-02 2.47350591e-03 -5.63551448e-02
      -1.34243488e-01 -3.87676172e-02 4.28464822e-03 -5.96824568e-03
      -8.91365856e-02 -9.89443660e-02 8.38249549e-03 2.68429592e-02
      7.03911930e-02 1.64592825e-02 2.55143400e-02 1.32183671e-01
      2.38890424e-02 -1.05939895e-01 3.47696780e-03 1.00839678e-02
      -4.83334437e-02 -5.17087094e-02 -4.29317057e-02 -1.35939777e-01
      -2.45109238e-02 1.22591011e-01 1.17717311e-01 3.38659715e-03
      7.35823214e-02 1.60263345e-01 8.63897130e-02 -3.08160624e-03
      -7.37131909e-02 -4.81938869e-02 -3.58062470e-03 -1.33329883e-01
      -1.80970863e-01 -1.68007523e-01 -7.84150809e-02 3.44787464e-02
      -3.97918336e-02 -1.56554729e-02 1.16993841e-02 1.76365161e-03
      1.89037584e-02 -7.34281316e-02 -1.25973150e-01 -1.34551600e-02
      5.65010831e-02 2.87191477e-02 -6.64551109e-02 -4.65595126e-02
      -7.42542464e-03 5.17981127e-02 1.17163993e-02 -2.22853897e-03
      -3.14894915e-02 -3.94956395e-02 -2.52800863e-02 -1.64673597e-01
      -1.78044245e-01 -1.44133285e-01 -8.87910202e-02 -2.96555664e-02
      -8.00007433e-02 -5.65508530e-02 -4.85375971e-02 -1.59661472e-02
      -4.40129032e-03 -4.75209430e-02 -1.19591527e-01 -1.46481842e-01
      -4.09691073e-02 8.23421478e-02 1.57540739e-01 1.00928351e-01
      7.04235733e-02 9.41850469e-02 5.15626334e-02 -1.72874853e-02
      -3.80969532e-02 -2.18964573e-02 4.58472297e-02 2.30555166e-03
      1.39227966e-02 -1.31809004e-02 -4.49942313e-02 -5.66102304e-02
      -1.57148138e-01 -8.80600214e-02 7.10705593e-02 3.85017344e-03
      -1.50384160e-03 -4.73979339e-02 -1.58157587e-01 -6.08611815e-02
      -2.96269618e-02 -4.11766618e-02 -4.14160751e-02 -8.87835026e-02
      -8.33263025e-02 -4.58722487e-02 -2.95592919e-02 -2.51480751e-02
      1.47540253e-02 4.37927470e-02 6.71526715e-02 -4.27514762e-02
      -7.91129693e-02 -6.05127998e-02 -1.57273058e-02 -3.12833749e-02
      -1.79288611e-02 3.66337262e-02 2.58969832e-02 -3.88601969e-04 0.
      -8.93547572e-03 -8.33977759e-02 -8.69013667e-02 -2.79462151e-02
      2.45778840e-02 2.88523864e-02 4.45903316e-02 3.11024897e-02
      -9.33938753e-03 -7.37471804e-02 -6.77366182e-02 -5.94482869e-02
      -7.88312107e-02 -2.17617098e-02 -3.88601969e-04 8.47388729e-02
      1.62474543e-01 1.77881598e-01 1.74380004e-01 1.26758143e-01
      4.90224883e-02 0. 0. 0. -9.94816273e-02 -1.41776219e-01
      -1.51903078e-01 -1.47000834e-01 -1.13385409e-01 -3.84510346e-02
      9.17081814e-03 2.59016324e-02 3.36271920e-03 -5.14072143e-02
      -1.98124945e-02 -8.94053746e-03 -4.71920483e-02 -2.92197056e-02
      2.31814198e-02 2.66788378e-02 7.77017558e-03 -3.91513556e-02
      -1.08483158e-01 -1.49101794e-01 -1.48328900e-01 -1.19735375e-01
      -7.14838086e-03 0. 0. 0. 0. 0. 0. 0. 0. 0. 7.89769867e-04
      -2.56869141e-02 -4.88569215e-02 -4.01838869e-02 -2.97183190e-02
      1.86179001e-02 4.51364694e-03 0. 0. 0. 0. 0. 0. 0. 0.</_>
    <_>
      0. 0. 0. -8.63348972e-03 -2.68815476e-02 -3.45339589e-02
      -3.57112512e-02 -3.57112512e-02 -2.98247822e-02 -1.11842938e-02
      -5.88647032e-04 0. 0. 0. 0. 0. 0. 0. 0. 0. 0. 0. 0. 0. 0. 0. 0. 0.
      0. -1.86404884e-02 -4.25788015e-02 -4.98387814e-02 -5.00349961e-02
      -4.49333899e-02 -2.31534503e-02 -4.31674486e-03 0. 0. 0. 0. 0. 0.
      0. 0. 0. 0. 0. 0. 0. 0. 0. 0. 0. 0. -2.48186085e-02
      -2.76534725e-02 -4.21273783e-02 -4.92980741e-02 -4.65077385e-02
      -3.31650712e-02 2.61460096e-02 3.85495462e-02 3.59270051e-02
      1.51776308e-02 -7.14961765e-03 -2.01080646e-02 -3.15238386e-02
      -2.24993676e-02 0. 0. 0. 0. 1.00000001e-01 6.51960820e-02
      6.67321011e-02 7.09015271e-03 4.66742814e-02 5.70655987e-02
      1.15577197e-02 2.40095565e-03 1.11217471e-03 -3.51981111e-02
      -4.22214158e-02 -5.37759736e-02 -8.39401037e-02 -3.98740321e-02
      -2.14490797e-02 2.28043236e-02 6.47886768e-02 5.23084812e-02
      4.73304130e-02 6.59815073e-02 4.58652228e-02 8.41886550e-02
      3.55728902e-02 4.43160161e-03 9.41176564e-02 2.74509825e-02
      1.52939754e-02 -5.95573746e-02 -5.86203672e-02 -2.24536750e-02
      -6.30295053e-02 -1.42568653e-03 -2.11813487e-02 4.86674234e-02
      3.24939601e-02 5.28773591e-02 -5.11251763e-03 -2.88230507e-03
      1.96483657e-02 -4.49831560e-02 -6.03811927e-02 -1.47848399e-02
      -1.18989095e-01 -2.12914422e-02 8.46971385e-03 -6.22911453e-02
      -4.16298099e-02 -5.19710816e-02 9.41176564e-02 3.48660424e-02
      4.49077636e-02 -5.22849783e-02 -1.30839393e-01 -7.13418648e-02
      4.38091233e-02 3.18392962e-02 1.62217673e-02 5.51370643e-02
      7.03271478e-02 8.10014978e-02 -2.57226080e-02 -1.43922102e-02
      4.30969298e-02 4.15294617e-03 4.17244397e-02 -1.78108700e-02
      -3.09727378e-02 1.58595629e-02 1.23440819e-02 -5.90183921e-02
      -6.78202137e-02 -1.11171149e-01 9.51975212e-02 5.55440411e-02
      8.89328048e-02 -5.26405014e-02 -1.19886130e-01 -4.29752469e-02
      7.02016195e-03 -1.44212004e-02 4.04112367e-03 2.25136951e-02
      -9.96912736e-03 -7.12998211e-02 -1.29148483e-01 -1.03159256e-01
      -6.34738728e-02 -1.02894120e-01 -1.97058946e-01 -2.09588811e-01
      -1.05373800e-01 5.68149798e-03 -7.50660822e-02 -4.41390648e-02
      -3.93302413e-04 -4.97489609e-02 1.11336850e-01 8.63793492e-02
      1.08310260e-01 -4.53298315e-02 -2.29976680e-02 1.59430353e-03
      5.75177930e-02 4.52687740e-02 2.53312904e-02 6.07155077e-03
      4.09599394e-02 9.79754254e-02 2.12160554e-02 2.05699299e-02
      1.61150042e-02 8.76523834e-03 -6.86973333e-02 -7.11801127e-02
      -1.55119933e-02 2.85154153e-02 -2.34266724e-02 -3.36869732e-02
      -6.86581247e-03 -5.18911891e-02 1.14907384e-01 9.51168165e-02
      6.61233142e-02 -3.53935882e-02 -2.53035519e-02 -8.25785473e-02
      -5.57069704e-02 -2.12839805e-02 -3.93999815e-02 -1.01626575e-01
      -5.76691097e-03 2.80396100e-02 -3.57904769e-02 -1.97929237e-02
      -6.57694861e-02 -8.05430710e-02 -7.57746920e-02 3.89614329e-02
      1.80834858e-03 9.27590241e-04 2.04121862e-02 1.00534797e-01
      1.07866094e-01 5.94518483e-02 1.00905411e-01 8.19467604e-02
      7.44723305e-02 1.07095592e-01 1.37043029e-01 2.41004322e-02
      1.92488190e-02 8.58387575e-02 2.37526186e-02 4.45592310e-03
      2.92039793e-02 4.53498326e-02 -6.10869192e-02 -1.15591185e-02
      -5.86409355e-03 -3.12965065e-02 -6.69095144e-02 2.20897645e-02
      1.11014254e-01 1.12527899e-01 7.23725259e-02 4.84444350e-02
      7.44358450e-02 8.42479058e-03 1.01019055e-01 7.65667781e-02
      1.16367407e-01 1.77043989e-01 1.25856906e-01 1.17503777e-02
      1.26870275e-01 6.18889444e-02 3.21086962e-03 -4.08235826e-02
      -1.07929204e-03 6.56635873e-03 -8.62821788e-02 -6.92771897e-02
      -6.28818944e-02 -5.19144945e-02 -6.58344254e-02 -1.99288681e-01
      -1.36109710e-01 -2.85867695e-02 -3.68506983e-02 3.42623587e-03
      7.99440369e-02 4.26548794e-02 1.01261832e-01 1.03526495e-01
      1.74833193e-01 2.61143923e-01 2.44339973e-01 2.13017955e-01
      1.57486320e-01 9.76790115e-02 5.77107929e-02 -2.43498161e-02
      -1.68070458e-02 -1.72912106e-02 -8.20884556e-02 -2.03571171e-02
      -1.08940732e-02 -1.00416146e-01 -1.22787483e-01 -1.27358437e-01
      -5.98531291e-02 2.83052232e-02 2.42304374e-02 -3.18723195e-03
      2.83026304e-02 -1.57806426e-02 8.25232193e-02 6.92267641e-02
      6.77002892e-02 1.49957970e-01 2.01574370e-01 1.45446122e-01
      1.84174478e-01 5.79242632e-02 -9.11741331e-03 -9.44068506e-02
      -9.70541164e-02 -4.51394767e-02 -9.44675654e-02 -6.49724901e-02
      4.26850840e-03 -1.89989377e-02 -1.18879201e-02 -6.38335338e-03
      6.25241995e-02 -2.11374164e-02 -1.33540675e-01 -4.42712940e-02
      7.06527103e-03 1.04234591e-02 3.59160150e-03 -2.29272060e-03
      9.35630724e-02 1.40878603e-01 8.50863904e-02 5.85362352e-02
      1.88640028e-01 2.11460158e-01 8.88715833e-02 -8.32439661e-02
      -8.87298808e-02 2.78925821e-02 4.02451865e-02 5.98261580e-02
      6.36997670e-02 -7.19775930e-02 -1.06343940e-01 -8.31992403e-02
      -4.29499149e-02 1.19881118e-02 -6.40379637e-02 -3.76298353e-02
      6.08940311e-02 4.06736471e-02 1.48040643e-02 -3.77702191e-02
      5.12709171e-02 8.85652453e-02 1.15770347e-01 9.64160040e-02
      7.03190938e-02 3.32600325e-02 -6.04335256e-02 -8.82738531e-02
      1.34877414e-02 4.56885472e-02 -4.69950661e-02 -1.41760930e-01
      -1.62140295e-01 -2.75233090e-01 -2.35284299e-01 -1.20600894e-01
      -1.31894206e-03 -4.49001556e-03 3.31282504e-02 6.44431217e-03
      3.87117639e-02 -7.29579404e-02 4.54870891e-03 -3.08644064e-02
      7.26967379e-02 -8.60812049e-03 7.49048293e-02 1.63593978e-01
      1.98414057e-01 1.97887495e-01 1.62229478e-01 9.66713354e-02
      3.56440209e-02 3.77864279e-02 -5.94868362e-02 -9.43759158e-02
      -9.21453312e-02 -8.78903940e-02 -6.56362176e-02 -1.63067043e-01
      -8.30947831e-02 -3.62372026e-03 -3.77988769e-03 -2.00973041e-02
      6.98592365e-02 -3.01353671e-02 -2.98587065e-02 -1.20806441e-01
      -8.53166878e-02 -6.05650758e-03 1.59959510e-01 2.10010111e-01
      9.07802880e-02 1.76713243e-02 3.46659385e-02 1.29746288e-01
      9.88076106e-02 2.04844698e-02 -3.86452526e-02 -2.40996946e-02
      1.83571689e-02 -6.47766888e-02 -1.48451373e-01 -2.04521850e-01
      -1.29235253e-01 7.19475001e-02 2.31946800e-02 -7.65813068e-02
      1.81970168e-02 3.77772935e-02 3.48965777e-03 -4.91240658e-02
      -6.77877441e-02 -8.63768086e-02 -5.49169444e-02 3.62068862e-02
      7.62922987e-02 3.90572771e-02 8.62248912e-02 2.31183454e-01
      1.09878547e-01 5.47232442e-02 -1.49172973e-02 -3.32487710e-02
      2.45543532e-02 -1.00228861e-01 -1.64878115e-01 -1.15425162e-01
      -1.97577663e-03 4.48074229e-02 -9.71626416e-02 -1.92193732e-01
      3.75449769e-02 2.51272302e-02 -9.13503990e-02 -9.49471518e-02
      -5.36730103e-02 -5.39440811e-02 2.95727104e-02 2.52271071e-02
      3.13067958e-02 1.05654046e-01 1.14584967e-01 2.39592642e-02
      -3.75859905e-03 2.99930871e-02 -2.50451025e-02 -7.92815164e-02
      -6.82200259e-03 -3.35099944e-03 -6.79636300e-02 -1.33655876e-01
      -1.47084564e-01 -4.10274155e-02 -8.32587257e-02 2.64235847e-02
      1.03338227e-01 2.51272302e-02 -7.06237555e-02 -7.43936971e-02
      2.26688944e-02 5.60917333e-02 3.49555500e-02 5.35416193e-02
      7.10452572e-02 -5.29282785e-04 -2.37399917e-02 4.08763103e-02
      7.35278428e-02 8.28276128e-02 8.87232795e-02 7.82045126e-02
      4.79033887e-02 1.78411640e-02 2.77693663e-02 5.41560352e-03
      -4.00188426e-03 -4.45144204e-03 1.76131502e-02 -5.08514745e-03
      -8.46876763e-03 -1.63874254e-02 0. -2.09481400e-02 -6.61732107e-02
      -5.15811741e-02 -2.54853256e-02 -4.75085899e-03 5.57314493e-02
      4.90565412e-02 3.94258909e-02 5.30356430e-02 5.84142245e-02
      5.87416068e-02 5.88155836e-02 4.46282327e-02 4.22555916e-02
      1.51480790e-02 8.30541539e-04 1.26440302e-02 8.06716620e-04
      -2.35583540e-02 -3.19201648e-02 -3.89146134e-02 -6.07334040e-02
      -1.99052375e-02 0. -6.00335840e-03 -2.79318355e-02 -4.02429029e-02
      -2.01247353e-02 9.77503788e-03 1.55557320e-02 4.97630015e-02
      3.02945022e-02 -7.89333694e-03 -1.08046560e-02 -1.03143612e-02
      -1.12821963e-02 -1.34630129e-02 -1.50502818e-02 -1.74888223e-02
      3.30792926e-02 5.41898422e-02 2.68284194e-02 1.58688966e-02
      -6.14178088e-03 -3.09072640e-02 -1.71185024e-02 0. 0.
      -8.47179908e-03 -1.35403955e-02 -1.57126524e-02 -2.10979618e-02
      -1.84734762e-02 7.03335600e-03 2.28935704e-02 2.66994406e-02
      2.77855694e-02 2.52747070e-02 2.19536182e-02 2.17447374e-02
      2.20580567e-02 2.38181893e-02 2.80027948e-02 3.24921235e-02
      3.55734155e-02 2.23882813e-02 7.27148028e-03 4.17759409e-04 0. 0.
      0. 0. 0. 0. 0. 0. 0. 0. 0. 0. 7.53816916e-03 2.31170505e-02
      2.91475859e-02 2.91475859e-02 2.91475859e-02 2.56297756e-02
      3.51781212e-03 0. 0. 0. 0. 0. 0. 0. 0.</_>
    <_>
      0. 0. 0. 0. 0. 0. 0. 0. 0. 0. 0. 0. -6.66666683e-03
      -5.45098074e-02 -6.90196082e-02 -7.13725537e-02 -7.13725537e-02
      -6.39215708e-02 -3.88235338e-02 -1.01960795e-02 0. 0. 0. 0. 0. 0.
      0. 0. 0. 0. 0. 0. 0. 0. -2.35294132e-03 -2.54901983e-02
      -8.86274576e-02 -9.88235325e-02 -1.00000001e-01 -9.68627483e-02
      -5.92156872e-02 -1.76470596e-02 0. 0. 0. 0. 0. 0. 0. 0. 0. 0. 0.
      0. 6.34578196e-03 1.74508989e-02 1.98264010e-02 8.73190816e-03
      -3.96970958e-02 -7.30304271e-02 -5.87601736e-02 -5.49443737e-02
      -9.68351681e-03 1.49149476e-02 1.55340880e-02 7.82646425e-03 0. 0.
      0. 0. 0. 0. 8.60632677e-03 5.61098754e-03 1.52805494e-02
      3.47193703e-02 7.15133697e-02 8.12435672e-02 8.14964622e-02
      6.31006956e-02 3.26931030e-02 2.44440569e-04 -1.44276768e-02
      -2.04791576e-02 -8.80196970e-03 3.67258973e-02 5.04335724e-02
      5.27757928e-02 7.77723268e-02 9.63171571e-02 9.36240032e-02
      7.42300898e-02 5.47029153e-02 3.80300619e-02 1.88884679e-02 0.
      8.10007285e-03 2.36252113e-03 -6.11587381e-03 5.41043421e-03
      8.98404280e-04 -1.02266166e-02 -2.72667897e-03 3.67406346e-02
      2.74859630e-02 2.37891003e-02 2.47223768e-02 2.42731851e-02
      7.58973137e-02 1.64212119e-02 -5.22516808e-03 -2.18128897e-02
      -1.00281956e-02 -4.17944603e-02 -3.90314162e-02 3.95810418e-02
      4.39202413e-02 1.91205982e-02 1.74818803e-02 0. 8.10007285e-03
      7.75643578e-03 -5.24533959e-03 -5.60458237e-03 -3.34899165e-02
      -2.03210022e-02 5.25739929e-03 -3.68978456e-02 -9.63994190e-02
      -7.22419247e-02 -3.89090218e-02 -2.85122567e-03 1.55838449e-02
      1.38088700e-03 5.99694252e-02 3.12882625e-02 4.57418002e-02
      1.16266562e-02 5.44244722e-02 6.52469993e-02 3.82152162e-02
      1.39976274e-02 -1.90250259e-02 -4.70055863e-02 8.84041376e-03
      2.15050764e-02 3.84893715e-02 2.09881365e-02 -6.72251103e-04
      7.68740708e-03 1.69124678e-02 -1.89442746e-03 -2.28000656e-02
      -7.96024203e-02 -5.35437204e-02 -4.30878513e-02 -3.87220234e-02
      -3.90632786e-02 1.45967416e-02 -2.67936196e-02 -3.68779078e-02
      -5.09410575e-02 5.01832329e-02 9.82781500e-02 3.96817364e-03
      -9.29939002e-03 -3.63888554e-02 -6.94250762e-02 1.18017783e-02
      3.60767022e-02 8.59660283e-02 5.30152805e-02 2.45011747e-02
      3.41426879e-02 1.43059529e-02 5.72440103e-02 2.38116812e-02
      -2.94677168e-02 3.77596989e-02 7.27344528e-02 1.00081071e-01
      7.11162612e-02 8.46894011e-02 4.06379253e-02 2.62870397e-02
      1.85757373e-02 4.50003594e-02 5.87867126e-02 -2.84876744e-03
      -6.99321851e-02 -1.22378282e-01 -1.18879318e-01 1.38739869e-02
      6.59057349e-02 7.22729564e-02 7.09240139e-02 1.20279221e-02
      -3.48685607e-02 3.19994092e-02 7.06336871e-02 -1.59417279e-02
      -8.81745964e-02 -7.49485418e-02 -5.13081998e-02 -4.07212116e-02
      -2.59929467e-02 -1.46386921e-02 -6.63873851e-02 -2.90242657e-02
      -1.43700577e-02 -1.50975259e-02 2.79137827e-02 -9.34778340e-03
      -1.17779979e-02 -4.39199284e-02 -1.98861472e-02 2.02225894e-02
      4.84600216e-02 6.88563809e-02 1.05179183e-01 2.94570848e-02
      1.12946406e-01 1.40320197e-01 1.29573628e-01 1.76781584e-02
      3.82698420e-03 4.95013222e-02 2.05528587e-02 -5.32259084e-02
      -8.97634327e-02 -5.82388192e-02 -3.17857340e-02 3.99899408e-02
      7.38434643e-02 8.33411813e-02 7.16726631e-02 4.71299514e-02
      8.15227479e-02 6.45458251e-02 -1.41049568e-02 -1.96579844e-02
      1.58051606e-02 2.09449567e-02 -3.10829170e-02 -2.90190745e-02
      -1.92596659e-03 2.11277325e-02 1.15898801e-02 -5.83925284e-02
      -7.88196027e-02 -6.88687712e-02 -2.67630629e-02 -7.07360134e-02
      -1.13624670e-01 -8.52869973e-02 -9.64813307e-02 -1.39976695e-01
      -5.41599952e-02 1.19956341e-02 9.81322210e-03 -6.51228521e-03
      4.44293283e-02 2.26875432e-02 1.24236848e-02 -6.46202192e-02
      -3.22520435e-02 5.45236655e-03 7.06613660e-02 5.17567247e-02
      6.35797605e-02 1.03175983e-01 -3.84020241e-04 -3.41973901e-02
      -6.43454790e-02 -2.36754920e-02 3.96919996e-02 -6.45770272e-03
      -9.47462209e-03 -6.07847683e-02 -2.08589345e-01 -2.16802388e-01
      -8.43762234e-02 4.65815738e-02 6.59346730e-02 7.22007081e-02
      -2.03237534e-02 -5.27775958e-02 -8.87269303e-02 -4.78333384e-02
      7.68160797e-04 6.66153058e-02 7.52137452e-02 7.61989802e-02
      4.27751765e-02 6.60045221e-02 6.12817444e-02 -2.45815190e-03
      4.88411672e-02 1.12797320e-01 7.60887265e-02 1.91928744e-02
      -4.60729823e-02 -3.50751318e-02 -1.26819968e-01 -1.32334009e-01
      -6.80405423e-02 -9.45780333e-03 6.40172558e-03 2.74176225e-02
      2.85307188e-02 5.40259071e-02 3.93006019e-02 -4.79466096e-02
      -4.77449521e-02 6.04091994e-02 1.15387842e-01 -9.43124481e-03
      4.21483442e-03 -1.28664412e-02 -3.50769348e-02 -1.02782041e-01
      -1.12507828e-01 -1.10106416e-01 -1.30323768e-01 -9.60696414e-02
      -1.02132104e-01 -6.07704036e-02 -8.66582915e-02 -9.12494287e-02
      -5.67348264e-02 -9.44723282e-03 1.34491995e-01 1.76027358e-01
      8.35896581e-02 8.72259364e-02 2.21616570e-02 -5.17482907e-02
      -7.93770552e-02 4.57176119e-02 1.72582194e-01 1.17308974e-01
      1.41261905e-01 4.68164384e-02 -5.33287823e-02 -1.06477775e-02
      -3.45111005e-02 -5.78730553e-02 -1.04396343e-01 -1.11032866e-01
      -1.56221703e-01 -1.40316024e-01 -1.32897139e-01 -1.96879491e-01
      -1.10710718e-01 -2.21980568e-02 9.23994333e-02 1.42381549e-01
      6.70137703e-02 8.63827858e-03 -7.99779966e-02 2.15491243e-02
      -2.53860112e-02 4.43156324e-02 3.56910154e-02 1.46795241e-02
      7.55363628e-02 9.31071043e-02 1.07322961e-01 8.17260742e-02
      1.00069335e-02 -9.51500610e-03 -6.46651816e-03 -5.92550039e-02
      -5.70707731e-02 -2.71463208e-02 -2.28121448e-02 -1.16800420e-01
      -1.05650142e-01 -1.62659548e-02 5.37051260e-03 7.97812045e-02
      1.89139824e-02 4.81028995e-03 -3.19870003e-02 3.72817256e-02
      1.20977052e-02 -1.42898140e-02 -5.57008237e-02 6.63815707e-04
      1.03107676e-01 6.96146339e-02 5.59628196e-02 4.66426313e-02
      4.59238105e-02 5.89314066e-02 8.66972283e-02 4.92952252e-03
      -4.66315337e-02 -7.76417330e-02 -8.54960829e-02 -8.83241147e-02
      3.41520458e-02 9.38256308e-02 1.17798239e-01 9.59085599e-02
      1.43664656e-02 6.87742187e-03 -2.37944648e-02 1.41581101e-02
      1.78050306e-02 1.00540249e-02 -3.40278372e-02 -1.52707919e-02
      5.64683042e-02 9.81291980e-02 1.22820362e-01 1.16411798e-01
      1.86175138e-01 1.40631199e-01 7.66324028e-02 2.31255405e-02
      -1.59531832e-02 -2.78696734e-02 -7.71928802e-02 -1.05555683e-01
      -8.97894949e-02 -6.64810613e-02 -3.91058438e-02 -4.92927432e-02
      -6.00475483e-02 -5.36158122e-02 -5.26580997e-02 -8.94328952e-02
      -8.65195692e-02 -8.69850740e-02 -4.97549288e-02 -2.13446580e-02
      -3.49890850e-02 -3.09653040e-02 5.66124730e-02 9.52741727e-02
      1.04270570e-01 1.11402303e-01 1.23868510e-01 8.91908556e-02
      3.84171470e-03 -2.61308122e-02 -5.53519353e-02 -1.88990727e-01
      -2.06231669e-01 -1.77222744e-01 -1.09025218e-01 -4.24472094e-02
      -6.29257113e-02 -9.82555449e-02 -1.36646762e-01 0. 1.78850943e-03
      -1.46994442e-02 -7.61921145e-03 1.39325131e-02 5.28275333e-02
      1.11266881e-01 1.02390751e-01 5.26147373e-02 6.06080703e-02
      6.66600168e-02 5.38199693e-02 3.16972993e-02 -4.29051407e-02
      -8.74562114e-02 -1.07802436e-01 -1.37494698e-01 -5.81318326e-02
      -9.22618210e-02 -6.11783266e-02 -6.29467890e-03 -2.39026342e-02
      -2.58351620e-02 -4.17738296e-02 0. 0. -3.46663743e-02
      -3.55209224e-02 -3.62100266e-02 -1.91410854e-02 2.57947464e-02
      4.85481136e-02 4.69339788e-02 5.10180518e-02 5.28624728e-02
      5.28624728e-02 3.95291373e-02 -2.16473341e-02 -3.47992852e-02
      -4.20148782e-02 -8.78817961e-03 2.41791457e-02 -1.21869706e-02
      -1.24422759e-02 -1.22038098e-02 -1.81655064e-02 -3.43813263e-02
      -4.26084697e-02 0. 0. 0. 8.22714344e-03 2.11044103e-02
      3.00469585e-02 3.01661920e-02 2.90930867e-02 1.16849281e-02
      1.66927546e-03 0. 0. 0. 0. -1.24319375e-03 -1.02356290e-02
      6.09791093e-03 2.73722000e-02 3.02854255e-02 2.96892561e-02
      2.15813462e-02 8.34637694e-03 0. 0. 0. 0. 0. 0. 8.34637729e-04
      6.55786786e-03 1.93159003e-02 2.74238102e-02 3.04046571e-02
      3.04046571e-02 2.76622791e-02 2.63507050e-02 2.61122379e-02
      2.64699403e-02 2.66575534e-02 2.14951020e-02 2.31526941e-02
      2.68952642e-02 1.91966668e-02 7.39250565e-03 4.76935849e-04 0. 0.
      0. 0. 0. 0. 0. 0. 0. 0. 0. 0. 1.78850943e-03 5.48476214e-03
      6.91556977e-03 6.91556977e-03 6.91556977e-03 6.08093198e-03
      8.34637729e-04 0. 0. 0. 0. 0. 0. 0. 0.</_>
    <_>
      0. 0. 0. 0. 0. 0. 0. 0. 0. 0. 0. 0. 0. 0. 0. 0. 0. -2.49633333e-03
      -3.81019316e-03 -5.25543885e-03 -7.94885121e-03 -3.28464928e-04 0.
      0. 0. 0. 0. 0. 0. 0. -1.24816666e-03 -1.07736494e-02
      -1.66860186e-02 -1.67517103e-02 -1.67517103e-02 -1.67517103e-02
      -1.67517103e-02 -1.67517103e-02 -1.67517103e-02 -1.67517103e-02
      -1.67517103e-02 -1.67517103e-02 -1.67517103e-02 -1.67517103e-02
      -1.67517103e-02 -6.24083355e-03 0. 0. 0. 0. 0. -2.89239758e-03
      -2.89239758e-03 -2.89239758e-03 7.17989122e-03 1.88776031e-02
      2.59891674e-02 3.39639150e-02 3.68436798e-02 3.68436798e-02
      1.16748974e-01 1.16527453e-01 1.12761602e-01 5.92586845e-02
      1.53561700e-02 -3.25157261e-03 -1.94470305e-02 -1.81331709e-02
      -1.51112927e-02 -2.23356159e-03 0. 0. 3.64906900e-03
      2.37904978e-03 1.71102714e-02 3.51968966e-02 8.84062722e-02
      4.39120047e-02 -2.99177635e-02 -6.64740652e-02 -6.35931566e-02
      -3.89130116e-02 3.82510736e-03 3.10138948e-02 -4.75576483e-02
      -1.01391664e-02 -2.47390829e-02 -4.17831391e-02 -3.34503502e-02
      -1.34966243e-02 -1.34689780e-02 -4.55739796e-02 3.09407040e-02
      9.94132757e-02 3.30361538e-02 -1.32207596e-03 3.43441800e-03
      -1.67955868e-02 -2.27551665e-02 -2.29769107e-02 -7.84848928e-02
      -1.74699455e-01 -1.75786093e-01 6.06494434e-02 2.03178003e-02
      1.48360035e-03 -1.81670040e-02 7.20180199e-03 8.22400767e-03
      1.91700403e-02 3.60310152e-02 5.86380213e-02 5.22810817e-02
      -1.37974154e-02 -1.41972736e-01 -1.07362516e-01 -9.47217122e-02
      -7.16683716e-02 -6.11853711e-02 -9.06560570e-02 3.43441800e-03
      -9.01354477e-03 3.72589827e-02 5.61173111e-02 -7.91805834e-02
      -1.79426402e-01 -3.48012447e-02 -5.66623099e-02 -5.28411642e-02
      3.60911973e-02 6.27122298e-02 9.74300355e-02 9.05761719e-02
      5.38933612e-02 5.47321886e-02 7.57876597e-03 2.57505346e-02
      8.17985856e-04 1.52885476e-02 -1.80445269e-01 -1.21077724e-01
      2.97657307e-03 -1.53005868e-02 -5.22994883e-02 4.98506334e-03
      2.22214926e-02 9.25895572e-02 2.49913726e-02 -8.54224414e-02
      -4.40174490e-02 -1.81538463e-02 -3.80373225e-02 -8.17419142e-02
      -3.81849259e-02 2.86321603e-02 6.06587641e-02 -2.63378229e-02
      -1.39541730e-01 -1.52299494e-01 -9.74823087e-02 -2.98241358e-02
      1.75158447e-03 1.77365188e-02 2.89366959e-04 -7.29204342e-02
      3.25837471e-02 1.74197927e-02 -4.26700115e-02 3.66778411e-02
      7.14967698e-02 1.48653790e-01 1.04941294e-01 4.69811484e-02
      -1.19977929e-01 -7.37398416e-02 -1.07402772e-01 -1.18744127e-01
      -8.46833065e-02 1.00127943e-02 7.94290379e-02 1.02886115e-03
      -9.98420119e-02 -8.65720809e-02 -6.42072111e-02 -3.37682962e-02
      6.26268331e-03 5.34391366e-02 4.98288013e-02 -1.82883088e-02
      1.53372705e-03 -2.93803513e-02 -6.49931058e-02 4.33774106e-02
      8.50973055e-02 1.80640474e-01 1.87812567e-01 3.67416665e-02
      -1.22282706e-01 -2.65656831e-03 2.57055797e-02 -4.39482220e-02
      -5.12776710e-02 5.35904653e-02 4.39747721e-02 -8.19317475e-02
      -1.67502359e-01 -1.99837551e-01 -1.31725654e-01 -1.29541323e-01
      -8.38468149e-02 -5.52403517e-02 -5.03615066e-02 2.93150190e-02
      1.75330311e-01 2.10845441e-01 1.56585723e-01 1.31813306e-02
      7.50696883e-02 1.50710851e-01 3.73531170e-02 -9.61764008e-02
      -6.71741515e-02 5.21040894e-02 -1.38099706e-02 -1.96507648e-02
      -1.17293142e-01 -5.21876328e-02 -2.32425425e-02 -1.05513178e-01
      -1.35101885e-01 -8.03005248e-02 2.29179356e-02 -1.80344190e-02
      -1.78663190e-02 8.11651200e-02 1.37389526e-01 1.80914655e-01
      1.33877233e-01 1.55495435e-01 1.65718406e-01 -4.06789919e-03
      2.95692496e-02 3.99593227e-02 -4.36914265e-02 -9.92932618e-02
      -1.78160053e-02 -2.96141896e-02 -5.67735322e-02 -6.77166060e-02
      -8.20149928e-02 -3.25880665e-03 -3.97882089e-02 -1.35024667e-01
      -1.60539210e-01 -1.25793412e-01 -8.06177258e-02 -3.47642228e-02
      -4.43828665e-03 4.87373695e-02 3.35547514e-02 7.82002881e-02
      1.09691165e-01 1.10179856e-01 3.98321711e-02 1.66781596e-04
      4.25416008e-02 5.20467348e-02 1.23808332e-01 1.26549229e-01
      1.49032369e-01 1.03728890e-01 -7.21437335e-02 -1.05319791e-01
      -1.14600077e-01 -3.06387078e-02 -6.85941651e-02 -1.26515999e-01
      -1.55688316e-01 -1.00685678e-01 -1.42259955e-01 -1.38348192e-01
      -1.15758032e-02 9.06185806e-02 6.55695200e-02 8.47501159e-02
      7.41927326e-03 -3.25164758e-02 -6.99250847e-02 7.86518492e-03
      6.70333058e-02 9.79917496e-02 1.56785637e-01 2.14654341e-01
      1.23112231e-01 1.52061284e-01 1.10707343e-01 9.04920250e-02
      1.60881411e-02 -5.01336344e-02 -1.11095002e-02 -2.58782730e-02
      -7.42055699e-02 -5.39553389e-02 -5.64693101e-02 -3.54412422e-02
      -3.30000147e-02 -2.63751801e-02 7.91529100e-03 -2.56368637e-01
      -6.91654310e-02 1.05467357e-01 6.21122755e-02 1.35495784e-02
      5.29946201e-02 1.05470955e-01 2.27767229e-01 1.52405843e-01
      7.11254478e-02 9.65940133e-02 1.57187670e-01 1.16708733e-01
      -6.99937791e-02 -1.77725658e-01 -9.19461995e-02 -1.02182683e-02
      2.13444256e-03 9.66089033e-03 -5.99638671e-02 -1.87967867e-02
      4.62931134e-02 5.17364107e-02 7.04408959e-02 -5.61137982e-02
      -7.20331445e-02 -5.63604683e-02 4.61660884e-02 -5.49741983e-02
      -3.67364325e-02 1.65320143e-01 2.73163021e-01 2.55717069e-01
      5.65598905e-02 6.45517372e-03 3.66328321e-02 7.11706951e-02
      5.23389466e-02 7.00954124e-02 1.29399687e-01 6.82945773e-02
      -1.01537988e-01 -7.73454234e-02 -1.57852411e-01 -2.10267246e-01
      -8.45002681e-02 1.29788090e-03 6.70505241e-02 1.92960232e-01
      1.03642054e-01 1.61068797e-01 7.42631108e-02 -6.77482709e-02
      -5.17953113e-02 1.17501311e-01 5.46373278e-02 6.00771755e-02
      7.56176561e-02 1.58005789e-01 1.07706085e-01 1.03986837e-01
      9.41281840e-02 1.22124158e-01 1.05824895e-01 4.10002358e-02
      -1.82043165e-02 -1.68364048e-02 3.11603472e-02 8.85706916e-02
      -1.63918942e-01 -1.65864795e-01 -1.59696832e-01 -2.65311264e-03
      4.19389345e-02 1.02437176e-01 2.73213387e-02 -9.04496387e-02
      -1.22179911e-01 1.73032505e-03 5.49666435e-02 7.21688569e-02
      1.69840619e-01 5.90225905e-02 1.59352079e-01 1.18977554e-01
      3.87200452e-02 -1.65291037e-02 -1.77360028e-02 -4.07680199e-02
      -8.67040455e-02 -6.37850165e-02 -1.78267270e-01 -2.53814608e-01
      -2.72344321e-01 -2.34650850e-01 9.04018246e-03 -1.65702347e-02
      -4.26649824e-02 1.11618608e-01 5.42541929e-02 -1.20828159e-01
      -1.99519113e-01 -9.97043774e-02 -3.40154134e-02 5.53940311e-02
      4.91256714e-02 9.29659158e-02 1.92192849e-02 1.00242056e-01
      2.05228493e-01 1.88185394e-01 1.52139112e-01 1.31598741e-01
      5.07811308e-02 5.57238758e-02 -4.35468853e-02 -1.02622472e-01
      -1.10728435e-01 -6.23187721e-02 -1.37538776e-01 -2.27230042e-01
      -1.83852270e-01 2.63738967e-02 3.61239016e-02 -7.72510171e-02
      -1.28746361e-01 -8.37743655e-02 4.77213487e-02 2.29151189e-01
      2.41829112e-01 8.10144395e-02 7.04836100e-02 1.07725330e-01
      5.31958789e-02 3.55967768e-02 2.22043637e-02 2.24610474e-02
      -1.48111098e-02 5.32022342e-02 1.23675968e-02 -2.72743739e-02
      -2.24656314e-02 -1.43311858e-01 -1.83934271e-01 -1.18103042e-01
      -3.33567266e-03 -2.49375869e-02 3.60015372e-04 -4.45413552e-02
      -1.52059734e-01 -1.18334398e-01 -6.50172979e-02 3.05930190e-02
      1.02462836e-01 1.44557536e-01 6.46291524e-02 6.39473870e-02
      1.01761803e-01 8.04146528e-02 6.30982593e-02 7.55909532e-02
      2.11711153e-02 -1.47395320e-02 -3.42187136e-02 -3.47791724e-02
      -5.43280095e-02 2.99391076e-02 6.07109293e-02 4.15145941e-02
      -4.09786925e-02 -9.45778862e-02 -5.51713146e-02 0. -6.87971041e-02
      -1.41678512e-01 -1.22786343e-01 -1.11145414e-01 -1.04518853e-01
      -3.05406228e-02 1.44488728e-02 -4.73456318e-03 3.22227888e-02
      3.43430638e-02 3.10586002e-02 3.91123965e-02 6.53669378e-03
      1.80105567e-02 -1.58835929e-02 6.90609124e-03 6.35418743e-02
      6.72516599e-02 2.69992333e-02 1.37728630e-02 -1.48025304e-02
      -8.72686133e-02 -8.44097044e-03 0. -1.54264234e-02 -7.13674426e-02
      -1.18329816e-01 -9.33000147e-02 -4.08756807e-02 -1.80522669e-02
      2.81356573e-02 -1.31333550e-03 -3.46196443e-02 -3.73746967e-03
      7.08711054e-03 8.66062474e-03 4.15586168e-03 -1.75853558e-02
      -5.22133596e-02 -1.76897086e-02 5.42539824e-03 1.12463245e-02
      1.12942718e-02 -9.49162990e-03 -2.81009134e-02 -4.22048522e-03 0.
      0. -1.54264234e-02 -3.32910717e-02 -5.67383319e-02 -7.02170208e-02
      -6.43388778e-02 -1.35124363e-02 3.36481705e-02 3.67811359e-02
      1.60671026e-02 -5.48915891e-03 -1.56014627e-02 -1.71700902e-02
      -1.48171494e-02 -3.99856735e-03 2.03312598e-02 4.06242870e-02
      5.17379157e-02 4.46784645e-02 1.76772308e-02 3.23598273e-04 0. 0.
      0. 0. -1.54264234e-02 -3.26796621e-02 -5.17597087e-02
      -5.17597087e-02 -4.44524586e-02 -2.76051797e-02 -1.42085482e-03 0.
      1.17647070e-02 3.60784307e-02 4.54901978e-02 4.54901978e-02
      4.54901978e-02 4.00000028e-02 5.49019640e-03 0. 0. 0. 0. 0. 0. 0.
      0.</_>
    <_>
      0. 0. 0. 0. 0. -1.76325906e-02 -4.20243405e-02 -5.34855239e-02
      -5.34855239e-02 -5.28977700e-02 -4.70202416e-02 -1.35183195e-02 0.
      0. 0. 0. 0. 0. 0. 0. 0. 0. 0. 0. 0. 0. 0. 0. 0. 0. -8.81629530e-03
      -3.23264189e-02 -6.08324409e-02 -7.49385059e-02 -7.46446326e-02
      -7.35087469e-02 -5.23726977e-02 -3.06918304e-02 -3.36999148e-02
      -3.53641063e-02 -3.53641063e-02 -2.70431414e-02 -6.93413836e-04 0.
      0. 0. 0. 0. 0. 0. 0. 0. 0. 0. -8.09674710e-03 1.75721981e-02
      4.13375907e-02 2.39733495e-02 -1.19282380e-02 -2.81304885e-02
      -7.62692466e-02 -6.55017570e-02 -1.14752464e-02 1.95578896e-02
      1.35477330e-03 -4.20657769e-02 -4.44143489e-02 -4.11595069e-02
      -3.22280154e-02 -1.93927111e-03 0. 0. 1.70922671e-02
      1.11434879e-02 8.79749004e-03 1.39704496e-02 6.70512542e-02
      8.53127986e-02 4.53141220e-02 -3.14386524e-02 -5.63995987e-02
      -6.74031973e-02 -6.83953390e-02 -8.52502957e-02 -8.53986368e-02
      -5.27127683e-02 -7.28227869e-02 -8.86355788e-02 -5.69553263e-02
      2.52116453e-02 8.00823867e-02 3.95491682e-02 -3.17280218e-02
      -3.69078070e-02 -5.81791736e-02 -5.81155270e-02 1.60868410e-02
      4.69199521e-03 1.80753658e-03 5.88101931e-02 7.67572075e-02
      4.66195829e-02 -7.69277057e-03 3.40332128e-02 -8.65822285e-03
      -1.88365132e-02 -8.07795301e-02 -5.14806807e-02 -7.95475096e-02
      -1.06755532e-01 -1.21616565e-01 -8.23583975e-02 -6.77737370e-02
      -1.71940476e-02 -5.06048016e-02 2.24378239e-03 -2.72735301e-03
      -4.65481356e-02 -4.44854908e-02 -6.38132244e-02 1.60868410e-02
      2.44520046e-02 5.31655364e-02 4.88320962e-02 4.44600247e-02
      -1.33892372e-02 -6.48190305e-02 -1.31917536e-01 -1.61364853e-01
      -9.90914404e-02 -1.51415551e-02 1.89734735e-02 -2.23618187e-02
      -9.62044597e-02 -8.10050070e-02 -1.27775863e-01 -3.11900638e-02
      -1.11475199e-01 -1.01829946e-01 -1.00044101e-01 -4.96844910e-02
      1.45649984e-01 1.37427062e-01 1.37297139e-01 1.87989976e-02
      6.22940883e-02 1.46700576e-01 3.18247937e-02 -3.20712812e-02
      3.37312440e-03 -7.46160671e-02 -1.17051482e-01 -1.53814852e-01
      -1.39950544e-01 -6.91825822e-02 -2.39490885e-02 -1.12844631e-01
      -2.02761248e-01 -1.88364178e-01 -1.67026430e-01 3.48310992e-02
      1.38655841e-01 4.09068540e-02 -6.34759143e-02 -1.23680241e-01
      -2.21273731e-02 8.33182558e-02 1.79729626e-01 5.51378280e-02
      1.36009365e-01 1.35883912e-01 -2.77441498e-02 1.96906142e-02
      1.84742752e-02 -6.00872003e-02 -9.35265049e-03 -1.09807858e-02
      -2.32794359e-02 -8.60463306e-02 3.25197419e-07 -3.34636471e-03
      -1.00980334e-01 -1.01240268e-02 -1.16531439e-02 -6.52370900e-02
      -3.97723517e-04 1.42390937e-01 7.05845058e-02 2.08742339e-02
      9.99926478e-02 8.71314108e-02 1.60122633e-01 6.24078363e-02
      9.05942917e-02 8.50298926e-02 4.13557030e-02 1.26099795e-01
      -4.05044220e-02 -2.56891586e-02 -6.77157342e-02 -1.30418167e-01
      -1.68941841e-01 -3.70689221e-02 1.37599269e-02 -6.98944479e-02
      -9.99983251e-02 -1.04035698e-01 -1.50410622e-01 -7.99852833e-02
      -3.07814162e-02 4.06026840e-02 2.60551393e-01 3.16033185e-01
      3.51784140e-01 2.24711582e-01 2.27858186e-01 -3.69625539e-03
      -9.96988826e-03 7.29032457e-02 -2.69660056e-02 -1.43245247e-03
      -7.97709748e-02 -9.26511809e-02 -5.67458868e-02 -4.40267473e-03
      -6.77177310e-02 -9.47066769e-02 -9.32751074e-02 -3.05438280e-01
      -3.90540302e-01 -1.81146771e-01 1.46946730e-02 -3.07395775e-03
      8.43080282e-02 8.78533572e-02 -2.41008103e-02 8.78315046e-02
      3.71849686e-01 3.43499511e-01 2.75655180e-01 -4.20887768e-02
      9.16926470e-03 1.85347889e-02 -7.92581141e-02 -1.25161678e-01
      -9.34758484e-02 -1.64587557e-01 -3.84227484e-02 5.83932810e-02
      -8.00015405e-02 -2.04249248e-01 -2.94603080e-01 -2.79054463e-01
      -1.77059203e-01 -3.89432199e-02 4.37213592e-02 1.18390188e-01
      2.17128053e-01 1.72264114e-01 1.13029145e-01 5.78497872e-02
      1.43348500e-01 2.18051419e-01 1.89760983e-01 -7.82110989e-02
      1.47332596e-02 2.40438920e-03 -7.26982653e-02 1.57178957e-02
      -1.22782372e-01 -4.87684160e-02 3.22494023e-02 -1.01906955e-02
      -1.09031640e-01 -1.64392710e-01 -2.41945073e-01 -2.06490964e-01
      -1.10075280e-01 4.26509790e-02 -1.98404100e-02 -9.00211856e-02
      3.35307978e-02 1.36397824e-01 1.85159937e-01 7.14029521e-02
      -3.44278999e-02 -6.85940729e-03 5.38305379e-02 -4.80092801e-02
      1.89547837e-02 -8.26008543e-02 -1.76799655e-01 4.06464487e-02
      -2.49056175e-01 9.56806839e-02 2.14162823e-02 -1.32835610e-02
      -7.39875585e-02 -2.50571012e-01 -1.88794091e-01 -1.31743446e-01
      -1.76098466e-01 -1.16601914e-01 -1.62140280e-01 -4.38073389e-02
      1.81339018e-03 5.86869270e-02 2.09435299e-01 3.73176150e-02
      -2.30648275e-02 -6.70466498e-02 -6.96594492e-02 -9.90768224e-02
      -7.75627345e-02 6.79955631e-02 -1.03308717e-02 -1.70119986e-01
      -6.92971870e-02 1.89777762e-01 -8.56862962e-02 -1.50992349e-01
      -1.81596264e-01 -1.92785114e-01 -2.24821549e-02 -2.93697771e-02
      -1.83803827e-01 -1.28018945e-01 -2.18258411e-01 -1.93247855e-01
      7.32152909e-02 4.42364365e-02 -1.03719786e-01 1.49109624e-02
      -8.61554742e-02 -3.66448350e-02 -7.74156526e-02 -7.89290592e-02
      -3.53500433e-02 2.25609764e-01 1.84487756e-02 -7.42256790e-02
      7.00631440e-02 1.31855205e-01 -1.90517440e-01 4.75051440e-02
      2.73414642e-01 1.72830433e-01 1.40263140e-01 1.16669402e-01
      1.44079160e-02 6.75337613e-02 -6.82284236e-02 -1.48668826e-01
      -6.42196101e-05 6.83244169e-02 -1.84930280e-01 -7.44238943e-02
      -5.94449155e-02 -1.74927667e-01 -1.84182301e-01 -6.16974793e-02
      7.19567984e-02 1.43584386e-01 2.06080340e-02 -2.55776662e-02
      -2.37593384e-04 1.07163012e-01 5.94891720e-02 1.03432171e-01
      1.76938683e-01 1.60288990e-01 6.59470186e-02 8.03622156e-02
      1.12444535e-01 2.89041013e-01 2.74894208e-01 2.06137702e-01
      1.46180928e-01 2.01573260e-02 9.50013176e-02 1.47577971e-01
      8.31385031e-02 2.21618693e-02 -9.43016261e-02 -6.02391474e-02
      5.00165373e-02 5.47649600e-02 9.49743688e-02 7.58995116e-02
      -1.78136136e-02 -8.32312554e-02 7.65370801e-02 7.81584606e-02
      1.01079486e-01 6.03702366e-02 2.11675223e-02 4.90013789e-03
      3.64776291e-02 1.31117731e-01 -4.55071963e-02 2.75113024e-02
      5.87352477e-02 1.27753302e-01 9.49404091e-02 -1.79383438e-02
      -1.15269653e-01 1.11129522e-01 3.67436297e-02 -8.23437050e-03
      -1.64468735e-02 2.15266254e-02 2.17608791e-02 1.96289316e-01
      -4.01051454e-02 -1.00147754e-01 -1.50326893e-01 -1.63592309e-01
      3.30993645e-02 7.78598189e-02 9.71178263e-02 1.26037642e-01
      1.36716649e-01 1.47770479e-01 6.63480684e-02 4.16581854e-02
      -3.71991508e-02 -1.10582530e-01 -1.09391913e-01 -1.50250733e-01
      -6.84279483e-03 1.59199551e-01 3.60931940e-02 1.70922671e-02
      2.04827860e-02 6.12859987e-02 -3.29146683e-02 -6.87530190e-02
      2.17950044e-04 1.19786151e-01 2.04480484e-01 1.85949117e-01
      1.61568880e-01 1.18021883e-01 1.33538887e-01 1.74435467e-01
      1.34377286e-01 1.28122911e-01 6.31104261e-02 1.60985347e-02
      -2.27617677e-02 -1.01290219e-01 -2.02057809e-01 -1.79524496e-01
      -3.10350470e-02 -7.22845122e-02 -6.33547753e-02 0. -2.33676303e-02
      -1.08668610e-01 -6.53654262e-02 9.71668866e-03 4.16814722e-02
      5.67844808e-02 4.11389098e-02 8.25234726e-02 1.35123059e-01
      1.85881421e-01 1.40392095e-01 1.23677082e-01 1.22558109e-01
      1.16186805e-01 7.22605288e-02 -2.97672022e-03 -4.22607288e-02
      -1.13919508e-02 6.62098154e-02 5.94999194e-02 1.61641296e-02
      -1.25067942e-02 -4.65773493e-02 -1.64705887e-02 -8.07843208e-02
      -4.16983627e-02 -1.90668181e-02 -2.69896965e-02 1.50154426e-03
      3.84705327e-02 4.23779972e-02 9.41236243e-02 1.06389575e-01
      1.07163154e-01 9.83402580e-02 9.64548960e-02 7.40207955e-02
      6.23537078e-02 1.52183911e-02 1.67517923e-02 5.44724688e-02
      8.41977298e-02 5.07060066e-02 3.60836536e-02 7.24825833e-04
      -7.50870109e-02 -7.71371135e-03 -4.31372598e-02 -4.98039238e-02 0.
      3.03337090e-02 5.26870936e-02 4.72297072e-02 3.45150381e-02
      2.74562147e-02 -5.94128110e-02 -6.03714362e-02 -3.07708979e-02
      -6.95841573e-03 1.27013971e-03 -2.63407477e-03 -4.49966500e-03
      -3.27832736e-02 2.41929498e-02 4.76136617e-02 4.04418148e-02
      3.13777812e-02 -1.00057703e-04 -2.67348103e-02 -3.85685568e-03 0.
      -5.72549030e-02 -1.29411770e-02 0. 0. 5.49019640e-03
      3.34951207e-02 8.59190375e-02 9.10416842e-02 6.17960095e-02
      5.98675832e-02 2.44725309e-02 9.41699930e-03 7.84837175e-03
      1.02013135e-02 1.96130779e-02 3.60836536e-02 5.92247732e-02
      5.60469814e-02 4.27093133e-02 1.64869912e-02 5.66018105e-04 0. 0.
      0. -5.21568656e-02 -1.17647066e-03 0. 0. 0. 0. 0. 0. 0.
      1.17647070e-02 3.60784307e-02 4.54901978e-02 4.54901978e-02
      4.54901978e-02 4.00000028e-02 5.49019640e-03 0. 0. 0. 0. 0. 0. 0.
      0.</_>
    <_>
      0. 0. 0. 0. 0. 0. 0. 0. 0. 0. 0. 0. -3.92156886e-04
      -1.49019612e-02 -6.19607866e-02 -7.13725537e-02 -7.13725537e-02
      -6.50980398e-02 -3.52941193e-02 -6.27451017e-03 0. 0. 0. 0. 0. 0.
      0. 0. 0. 0. 0. 0. 0. 0. 0. 0. -3.01960800e-02 -9.01960880e-02
      -1.00000001e-01 -9.88235325e-02 -7.37254918e-02 -2.07843147e-02 0.
      0. 0. 0. 0. 0. 0. 0. 0. 0. 0. 0. 5.67642692e-03 1.56101743e-02
      1.94890667e-02 2.28949226e-02 2.41248142e-02 -2.88163666e-02
      -9.77102853e-03 -1.06499474e-02 1.07506418e-03 7.23787863e-03
      2.51042820e-03 -6.13228884e-03 -1.31332157e-02 -1.31332157e-02
      -1.31332157e-02 -1.31332157e-02 -1.31332157e-02 -1.31332157e-02
      4.48237322e-02 6.70917938e-03 -1.05882296e-03 -2.22223476e-02
      -7.95583054e-03 7.48025079e-04 8.42632144e-04 -8.67235474e-03
      -1.93724071e-03 5.63232228e-04 -4.22017686e-02 -5.08438423e-02
      -1.13023221e-01 -2.54381169e-02 1.52626270e-02 6.30619526e-02
      9.87167954e-02 1.09014280e-01 1.01931863e-01 5.59344515e-02
      -1.17148366e-02 -2.03718455e-03 -2.01662406e-02 -4.17079851e-02
      4.21119407e-02 -1.70956217e-02 -3.98409702e-02 2.94323042e-02
      2.08060481e-02 -7.42256921e-03 -1.55173161e-03 6.81460202e-02
      3.22380327e-02 1.04274554e-02 -3.10676713e-02 8.73801205e-03
      9.09679383e-03 1.58969574e-02 4.32273559e-02 8.06500018e-02
      7.60901943e-02 6.30251244e-02 -6.05959818e-03 4.31483611e-02
      -7.43278265e-02 -7.82780349e-02 -3.26407142e-02 -5.70113100e-02
      2.09846385e-02 -3.52990329e-02 -4.27652225e-02 1.42822070e-02
      -1.19724730e-02 -5.24798408e-02 1.17481558e-03 -9.35930386e-02
      -1.09150082e-01 -4.68299091e-02 2.29844786e-02 8.61877650e-02
      9.28981081e-02 5.29965460e-02 2.09304430e-02 -3.83558087e-02
      -3.17951455e-03 5.70163410e-03 2.80453451e-02 -6.99697435e-02
      -1.49339810e-02 -2.68608244e-04 -3.78457084e-03 -5.24676591e-02
      4.21518348e-02 -5.20567456e-03 -2.25025462e-04 4.94904332e-02
      1.89871006e-02 4.34405580e-02 -4.21022698e-02 -1.22338356e-02
      -3.05553037e-03 1.64954029e-02 7.59913996e-02 8.73498246e-02
      3.86310294e-02 -2.35503539e-02 -5.51283658e-02 -7.79979900e-02
      -9.03248563e-02 -7.74019286e-02 -2.90439315e-02 -2.83502527e-02
      -3.43425982e-02 8.40682350e-03 -2.62279063e-02 -7.47823715e-02
      7.00991526e-02 1.41010685e-02 1.77928619e-02 6.22969586e-03
      1.09810010e-02 -5.51263355e-02 -4.87475917e-02 -3.27250436e-02
      2.36413889e-02 3.08443066e-02 6.80968612e-02 1.02598079e-01
      8.43608305e-02 4.20028307e-02 -8.18418618e-03 -2.08054427e-02
      -4.52333428e-02 -4.25865836e-02 -1.06463984e-01 -1.40432082e-02
      1.93592068e-02 5.60972132e-02 4.69402934e-04 -1.21198175e-02
      4.49525081e-02 -1.38756605e-02 -4.65866039e-03 1.68567840e-02
      3.69935147e-02 1.01229094e-03 2.22656634e-02 -3.52410600e-02
      -7.26010874e-02 -7.46001750e-02 -4.83844941e-03 6.92483410e-02
      5.33663221e-02 1.11322124e-02 -6.86256811e-02 -4.78304513e-02
      -2.98346430e-02 -1.52824879e-01 -1.32971898e-01 -1.71349403e-02
      1.19280487e-01 1.85958520e-01 2.39108577e-02 -5.80950119e-02
      8.47976469e-03 -1.82027649e-02 3.89909511e-03 8.68489742e-02
      1.11401439e-01 1.28646120e-01 9.35579911e-02 2.05200687e-02
      -2.20204815e-02 -4.04082723e-02 1.64437182e-02 7.95978494e-03
      -7.63386339e-02 -1.08933076e-01 -1.15132764e-01 -4.16792370e-02
      -4.54781651e-02 6.54690862e-02 6.18778355e-02 3.56658734e-02
      8.00353196e-03 1.97695177e-02 -3.13527137e-02 -9.93192941e-02
      2.76494678e-02 2.72274446e-02 4.79080454e-02 8.94542783e-02
      8.94015506e-02 9.13456157e-02 8.83792937e-02 3.78140993e-02
      6.33262377e-03 -1.58174820e-02 2.65810117e-02 4.08315435e-02
      1.82139613e-02 -3.04899924e-02 -7.30184019e-02 -1.69081151e-01
      -8.88526812e-02 -1.05085716e-01 -9.50992703e-02 -3.28778550e-02
      1.97512880e-02 8.37452859e-02 7.40223229e-02 2.64510103e-02
      5.49063869e-02 1.00586161e-01 5.89984655e-02 1.49270907e-01
      1.43493265e-01 2.31518283e-01 2.42667377e-01 8.81202444e-02
      1.00775277e-02 -1.07719954e-02 -8.32821149e-03 -5.88186793e-02
      -6.00266941e-02 -7.65758306e-02 -1.73495129e-01 -2.34660134e-01
      -1.51598662e-01 -5.82008213e-02 2.36802176e-03 -1.25062186e-02
      -2.01185234e-02 -8.31189826e-02 -2.69854888e-02 -7.10640252e-02
      5.81784956e-02 6.79634362e-02 -1.00078776e-01 -8.27640519e-02
      3.86529155e-02 7.20240995e-02 8.51562098e-02 -4.08470035e-02
      -4.02486548e-02 4.24709264e-03 1.57087669e-03 1.06293876e-02
      -6.96936771e-02 -1.00175738e-01 -1.19795926e-01 -1.08612940e-01
      -7.27914572e-02 2.88981423e-02 1.06929854e-01 7.81225637e-02
      -8.45220238e-02 -8.57051276e-03 9.85592976e-03 1.65865030e-02
      6.16097897e-02 8.74092951e-02 2.84682121e-02 1.35026410e-01
      1.44056991e-01 1.02997720e-01 7.55041093e-02 8.67897049e-02
      9.63274948e-03 -1.25421807e-01 -1.58685789e-01 -1.06722070e-02
      9.75435376e-02 2.16405652e-02 1.01041824e-01 1.13758435e-02
      -1.15153613e-02 4.73459028e-02 3.30632851e-02 1.33679345e-01
      -4.09585133e-04 -2.40952708e-02 7.82343969e-02 9.06172693e-02
      1.00318171e-01 1.02490492e-01 1.02161832e-01 2.40903541e-01
      2.87232131e-01 1.71004355e-01 1.15540236e-01 4.05670144e-02
      -1.10368207e-02 5.94335049e-03 8.42181034e-03 1.12925261e-01
      -1.57364905e-02 -1.06261700e-01 -1.33351132e-01 -1.72967955e-01
      -9.12581235e-02 2.79006194e-02 1.90229397e-02 1.33209139e-01
      9.83831212e-02 2.99040191e-02 1.00643419e-01 1.06998254e-02
      1.00040138e-01 7.41245225e-02 4.66633923e-02 8.89188871e-02
      1.02474898e-01 9.10107717e-02 1.23648427e-01 5.87740913e-02
      6.97268024e-02 4.02783565e-02 -2.92851683e-02 -6.26241416e-02
      -3.58010493e-02 -1.28245801e-01 -9.78614688e-02 -9.83353588e-04
      2.63480656e-02 -5.03261015e-02 -1.61680356e-02 6.89594820e-02
      4.16240431e-02 4.91642132e-02 1.14760309e-01 8.71499479e-02
      6.46594018e-02 2.18157880e-02 -1.68504436e-02 -5.97769916e-02
      3.69290039e-02 7.46383145e-02 2.21716370e-02 7.10635707e-02
      6.54271012e-03 -1.88040156e-02 -6.46773577e-02 -5.51608130e-02
      2.08022492e-03 -9.40063745e-02 -3.41468826e-02 -9.55935270e-02
      2.15727128e-02 1.38687655e-01 1.05889231e-01 1.64072469e-01
      1.70850381e-02 3.15588638e-02 4.97878306e-02 9.65768192e-03
      -5.32026915e-03 -4.13973145e-02 -9.27687343e-03 -2.49903053e-02
      -1.02181293e-01 -1.74778118e-03 1.52530270e-02 -5.11109643e-03
      1.41490232e-02 5.49118780e-02 -1.45681500e-02 2.42023785e-02
      9.53601822e-02 1.18299322e-02 -1.02145225e-01 -1.29701778e-01
      -1.11063533e-01 -9.24302489e-02 2.23679747e-03 -2.68622953e-02
      7.46825826e-04 3.57463099e-02 4.13468145e-02 1.66188425e-03
      -2.31046714e-02 -3.78197506e-02 -6.72093267e-03 5.41724339e-02
      2.01401580e-02 -9.35728475e-02 -1.33971915e-01 -6.92196935e-02
      -3.47701050e-02 -1.83862150e-02 3.90449017e-02 8.34125504e-02
      7.94575512e-02 5.01711592e-02 7.26685449e-02 -6.87071756e-02
      -6.12476617e-02 -2.20286325e-02 -3.24894562e-02 5.32591678e-02
      5.73004782e-02 2.33807731e-02 -1.61301978e-02 -5.52068278e-02 0.
      4.98565263e-04 3.69587578e-02 1.08640216e-01 5.85462190e-02
      4.61052507e-02 1.26710068e-02 3.13826911e-02 1.67723093e-02
      6.02605520e-03 -2.38554943e-02 -2.42953300e-02 8.12447369e-02
      7.19790235e-02 6.48646653e-02 -4.39922187e-05 -4.32369998e-03
      -2.16845442e-02 -3.11132260e-02 -3.11242491e-02 2.00454667e-02
      2.43868902e-02 5.75011922e-03 2.32663791e-04 -1.54456403e-02
      -2.27221418e-02 -2.43066754e-02 4.49529886e-02 5.62216491e-02
      5.72778396e-02 3.84064466e-02 -2.25744937e-02 -8.19751546e-02
      -1.12611629e-01 -9.22748968e-02 -4.90203407e-03 2.40683071e-02
      1.36781801e-02 5.40914051e-02 1.56516880e-02 -3.06184334e-03
      -3.73214707e-02 -8.70130137e-02 -9.15908664e-02 -7.70145953e-02
      -1.35784335e-02 1.90124323e-03 0. 0. 0. 0. 2.29340023e-03
      -1.24017680e-02 -6.48558587e-02 -1.59227043e-01 -1.82486922e-01
      -2.04255417e-01 -1.52789786e-01 -9.04049650e-02 -8.52642283e-02
      -6.16893657e-02 -2.07318161e-02 0. 0. 4.02175961e-03
      7.71114277e-03 -2.25380212e-02 -4.66257818e-02 -1.24153523e-02
      1.54232408e-03 0. 0. 0. 0. -2.23899609e-03 -6.65105600e-03
      -1.95507836e-02 -2.06084065e-02 -3.28193642e-02 -6.98238835e-02
      -8.77261534e-02 -8.41546878e-02 -8.20052922e-02 -4.75013591e-02
      -9.42927040e-03 7.37876585e-03 7.77761778e-03 8.47560912e-03
      8.47560912e-03 7.57819181e-03 5.35126682e-03 2.06073630e-03
      1.32950736e-04 0. 0. 0. 0. 0. 0. 0. 0. 0. 0. 0. 0. 4.98565263e-04
      1.52893341e-03 1.92778569e-03 1.92778569e-03 1.92778569e-03
      1.69512187e-03 2.32663791e-04 0. 0. 0. 0. 0. 0. 0. 0.</_>
    <_>
      0. 0. 0. 0. 0. 0. 0. 0. 0. 0. 0. 0. 0. 0. 0. 0. 0. 0. 0. 0. 0. 0.
      0. 0. 0. 0. 0. 0. 0. 0. -7.29535567e-03 -2.48436444e-02
      -3.62796076e-02 -4.47579958e-02 -4.98844609e-02 -5.02788015e-02
      -5.02788015e-02 -5.02788015e-02 -5.02788015e-02 -4.31806222e-02
      -3.84484977e-02 -2.42521297e-02 -9.85858846e-04 0. 0. 0. 0. 0. 0.
      0. 0. 0. -1.08444477e-02 -3.88428420e-02 -3.96472886e-02
      -2.72842329e-02 -3.75501662e-02 -6.60787001e-02 -9.70032737e-02
      -9.79112014e-02 -9.80705246e-02 -9.81749520e-02 -9.30911079e-02
      -6.69034421e-02 -3.00325081e-02 -1.94710214e-02 -5.04360013e-02
      -3.24933678e-02 -7.23877177e-03 -2.69783381e-03 -2.70845508e-03
      -2.70845508e-03 5.92109598e-02 3.86032239e-02 3.15046646e-02
      1.77725144e-02 3.35157849e-02 1.14199501e-02 -1.37109002e-02
      -5.77833578e-02 -8.85057151e-02 -3.17014642e-02 -4.39980347e-03
      -1.62007976e-02 -9.22607142e-04 5.88565283e-02 5.78478873e-02
      2.56982613e-02 -2.25876253e-02 3.53942323e-03 1.18730858e-01
      1.52279630e-01 5.67760691e-02 6.47620112e-02 2.25206446e-02
      1.36277191e-02 5.57279661e-02 1.62539892e-02 2.16425993e-02
      2.55407970e-02 -5.11398986e-02 -6.56203404e-02 -8.95341486e-03
      1.73670314e-02 5.15033007e-02 9.22397524e-02 1.96882784e-02
      4.12414968e-02 4.43280898e-02 6.46438375e-02 1.21022999e-01
      1.51566684e-01 1.29088327e-01 -5.20716645e-02 -1.59964144e-01
      -5.62237613e-02 -2.89239958e-02 -9.23359394e-02 -9.49023813e-02
      -9.36720297e-02 5.57279661e-02 4.18833718e-02 1.07823044e-01
      -2.04197802e-02 -7.41735324e-02 -3.01819928e-02 -3.14831771e-02
      -7.89706856e-02 -9.62896571e-02 3.77739146e-02 3.38717103e-02
      8.48458335e-02 1.26655743e-01 1.43029377e-01 7.20353797e-02
      -1.34857327e-01 -1.04407899e-01 -3.78917940e-02 -2.17358142e-01
      -6.94042444e-02 -4.85108010e-02 4.11154516e-03 -1.83132980e-02
      -6.32156134e-02 5.92457242e-02 9.45531577e-02 1.10345051e-01
      -8.84814113e-02 -2.40790993e-02 -1.63653761e-01 -5.53494915e-02
      2.96693612e-02 -1.88172627e-02 5.30571491e-03 8.74954015e-02
      7.74645582e-02 -1.16370149e-01 -1.59511894e-01 -4.92508896e-02
      -3.89410220e-02 -1.31987147e-02 -1.45133346e-01 -1.34973750e-01
      -8.86970758e-02 -1.85381025e-01 7.42601305e-02 1.60921291e-01
      1.17567852e-01 9.64004844e-02 1.56692877e-01 1.15109727e-01
      -7.79975280e-02 -7.85630196e-02 -1.93952490e-02 -3.39627154e-02
      7.31989741e-02 5.57763651e-02 -6.14426173e-02 2.15427894e-02
      2.02249557e-01 1.38813984e-02 -1.16506167e-01 -1.03473969e-01
      2.37905998e-02 3.15784998e-02 -8.35603476e-02 8.49575177e-02
      5.01098335e-02 -1.05176397e-01 -1.66146327e-02 4.59719859e-02
      6.47380129e-02 1.01168953e-01 1.96269944e-01 1.72254115e-01
      -5.84158301e-03 -1.33925572e-01 -6.16088435e-02 -1.04299173e-01
      -1.71083942e-01 -6.00445122e-02 -7.21545070e-02 -6.70134798e-02
      -1.35117233e-01 -2.18433544e-01 -1.17464341e-01 -1.48230031e-01
      -5.15574962e-02 -5.72199970e-02 7.42935389e-03 -6.91854358e-02
      -1.30716071e-01 5.83898239e-02 1.98849559e-01 1.37907863e-01
      1.21952362e-01 7.02819750e-02 1.59545392e-01 1.38226599e-01
      1.40384570e-01 -2.27189455e-02 -1.08795330e-01 -2.47217074e-01
      -1.93118140e-01 2.40454474e-03 -2.65159756e-02 3.62968519e-02
      6.69358894e-02 -2.28963960e-02 -1.43947110e-01 -1.66623771e-01
      1.17462047e-03 -1.55925974e-01 -1.77996606e-01 -4.44014631e-02
      5.17800339e-02 -1.84932128e-02 5.14311045e-02 1.13328718e-01
      -2.01402381e-02 7.34919980e-02 1.41451195e-01 1.07319199e-01
      1.15865558e-01 8.60405192e-02 1.08909328e-02 -8.93970951e-02
      -2.75319088e-02 3.63249592e-02 -4.02423600e-03 5.59211858e-02
      -4.56877463e-02 -2.80889153e-01 -2.13770136e-01 -9.46458280e-02
      -1.57922935e-02 -1.38501242e-01 -1.45321906e-01 -2.37088595e-02
      2.55555939e-02 1.49591006e-02 9.95006692e-03 1.68169647e-01
      4.26010862e-02 -1.44790653e-02 6.41656145e-02 7.26790503e-02
      2.14515895e-01 1.83624089e-01 2.24163875e-01 8.03735927e-02
      -4.54866700e-03 6.16165902e-03 -1.76584020e-01 -1.50622398e-01
      -6.80430010e-02 -1.18402258e-01 -1.08350873e-01 -6.71757013e-02
      -1.52099147e-01 -3.17655712e-01 -2.50987083e-01 -9.73639358e-03
      1.47274449e-01 1.43333614e-01 5.07018389e-03 2.56550964e-02
      -4.34152642e-03 -1.09851118e-02 1.27738804e-01 6.90611154e-02
      1.25325518e-02 1.47575065e-01 1.06695555e-01 1.45929039e-01
      -5.47074887e-04 -1.74798518e-01 -3.34295183e-01 -2.17111424e-01
      -1.97145924e-01 -2.54710823e-01 -2.43727326e-01 -2.42711175e-02
      3.87243852e-02 1.12628741e-02 -1.57430954e-02 1.49726093e-01
      2.51196831e-01 -1.03698850e-01 -4.29569259e-02 9.65785310e-02
      7.52916783e-02 7.95134306e-02 1.68947577e-01 1.60056293e-01
      2.45735675e-01 2.61408109e-02 3.83553989e-02 4.92450856e-02
      1.02327786e-01 1.14483625e-01 -5.85296005e-02 -1.10445963e-02
      2.90411897e-02 3.79278176e-02 -9.65302112e-04 6.39685020e-02
      1.93610080e-02 -1.57889314e-02 -1.01547046e-02 -1.12722009e-01
      -1.09476045e-01 6.41503744e-03 4.52997610e-02 1.84299976e-01
      9.81365070e-02 1.03088934e-03 -9.75333527e-02 1.59823030e-01
      2.43504286e-01 6.34601014e-03 1.34861737e-01 1.40408978e-01
      -4.61567715e-02 2.06959888e-01 1.23354144e-01 1.91650148e-02
      4.38754782e-02 -4.95865233e-02 -2.57866651e-01 -2.14665830e-01
      -2.47980163e-01 -2.19372153e-01 4.64317314e-02 2.06276089e-01
      -4.47504148e-02 -1.31246932e-02 -5.65554909e-02 1.06733307e-01
      -9.12558008e-03 -2.17076559e-02 -1.31831482e-01 -8.13696254e-03
      1.17518283e-01 -1.16195038e-01 -1.14731751e-01 5.58129326e-02
      -4.10702899e-02 9.18843299e-02 1.28190115e-01 1.21522993e-01
      1.92233965e-01 8.83957371e-02 -3.35983485e-02 3.49499397e-02
      6.90007284e-02 2.67639328e-02 -4.07129265e-02 -1.77825421e-01
      -6.94866478e-02 -1.08266167e-01 -2.35450417e-01 9.86645892e-02
      4.32996266e-02 -2.08527744e-02 -2.00508572e-02 -1.46359965e-01
      -7.69793019e-02 -1.62277818e-02 2.56676786e-02 1.82329938e-01
      9.24279764e-02 1.00144140e-01 5.96098639e-02 1.06038578e-01
      1.73189357e-01 1.48302853e-01 6.49665147e-02 1.11900367e-01
      1.28412962e-01 -3.49502172e-03 -9.83515196e-03 -9.17861834e-02
      3.70012894e-02 -1.29189253e-01 -1.86264962e-01 1.36446685e-01
      1.78160928e-02 2.90007181e-02 6.13272423e-03 -2.06361432e-02
      7.26658404e-02 6.54722676e-02 1.02510273e-01 1.32559836e-01
      -1.60102360e-02 -3.61514501e-02 4.85023558e-02 1.98185816e-02
      -4.81833965e-02 -3.60225118e-03 9.66857560e-03 7.83236325e-02
      5.61395288e-02 1.68507267e-02 1.77347168e-01 1.64943323e-01
      2.36082509e-01 5.57053275e-02 -8.22416767e-02 1.47007048e-01
      -3.61047755e-03 -4.04583886e-02 -3.44327800e-02 -5.32561867e-03
      -3.81099731e-02 -1.43853202e-01 -6.45854995e-02 -2.52073370e-02
      -1.04627043e-01 7.26166070e-02 1.63857564e-01 7.52843842e-02
      7.12000579e-02 4.64815535e-02 1.82242170e-02 6.26794845e-02
      -7.31797097e-03 -1.41509563e-01 -7.03180432e-02 -1.60211712e-01
      -1.64253905e-01 -1.64805189e-01 5.79265207e-02 1.49950951e-01
      3.92156914e-02 0. -2.33096592e-02 2.53068516e-03 -2.02259868e-02
      -3.54496762e-03 5.89732341e-02 5.14802448e-02 8.51136446e-02
      7.02815875e-02 7.53014162e-02 1.10614397e-01 8.82707015e-02
      6.76620454e-02 5.39158545e-02 5.93578368e-02 7.93991536e-02
      6.18374571e-02 -6.02522753e-02 -8.16239789e-02 -9.46406797e-02
      -4.93514650e-02 -8.10923055e-02 -2.29287855e-02 -2.02573929e-03 0.
      -6.13801405e-02 -7.11311027e-02 -6.77242922e-03 3.00903004e-02
      2.67997701e-02 6.48982450e-02 2.51379944e-02 2.64130458e-02
      6.40713349e-02 8.62132087e-02 1.05738096e-01 8.53385702e-02
      4.46754768e-02 2.19514146e-02 -1.97114926e-02 -2.16476936e-02
      -9.55194980e-03 6.49857521e-02 3.18535045e-02 9.40496917e-04
      -6.55520409e-02 -1.75994262e-01 -5.77913858e-02 0. 0.
      -5.38642034e-02 -6.80163056e-02 -1.96374413e-02 3.98124233e-02
      5.50022796e-02 1.06191963e-01 7.24784583e-02 1.03540653e-02
      7.58457230e-03 8.45971517e-03 6.10677432e-03 1.70221832e-03 0. 0.
      8.42543915e-02 8.35686922e-02 3.17309350e-02 -1.33625627e-03
      -5.27906157e-02 -9.70625654e-02 -1.28079787e-01 -3.64705883e-02 0.
      0. 0. 0. -1.20469863e-02 -1.38585838e-02 2.43410449e-02
      4.57316563e-02 6.28341734e-02 4.34180088e-02 3.85316908e-02
      3.61675210e-02 3.45988944e-02 3.69518362e-02 4.32319604e-02
      4.02863808e-02 6.28341734e-02 3.15778479e-02 -5.50955115e-03
      -4.59114723e-02 -5.13166860e-02 -2.54462752e-02 -3.27231400e-02
      -5.96078448e-02 0. 0. 0. 0. 0. 0. 0. 0. 0. 1.17647070e-02
      3.60784307e-02 4.54901978e-02 4.54901978e-02 4.54901978e-02
      4.00000028e-02 5.49019640e-03 0. -1.57168172e-02 -2.84399539e-02
      -3.81694138e-02 -3.81694138e-02 -2.54462752e-02 -2.05662753e-02
      -6.00000024e-02</_>
    <_>
      0. 0. 0. 0. -7.84313772e-03 -3.88235338e-02 -6.66666701e-02
      -7.13725537e-02 -7.13725537e-02 -5.76470606e-02 -1.05882362e-02
      -3.92156886e-04 0. 0. 0. 0. 0. 0. 0. 0. 0. 0. 0. 0. 0. 0. 0. 0. 0.
      0. -2.54901983e-02 -7.88235366e-02 -9.96078476e-02 -1.00000001e-01
      -8.58823583e-02 -2.31372565e-02 0. 0. 0. 0. 0. 0. -5.31290658e-03
      -1.17642926e-02 -1.87849198e-02 -1.93541590e-02 -1.63182113e-02
      -4.36417293e-03 0. 0. 0. 0. 0. 0. 1.27404984e-02 3.14193666e-02
      8.84041656e-03 -2.08568983e-02 -3.23574170e-02 -3.99599113e-02
      2.13441271e-02 6.92488104e-02 6.16715737e-02 1.84666608e-02
      -4.81388764e-03 -2.95914300e-02 -4.83853966e-02 -4.83853966e-02
      -4.83853966e-02 -4.83853966e-02 -4.83853966e-02 -4.83853966e-02 0.
      0. 9.23421394e-05 1.89924787e-03 3.24996449e-02 5.11091650e-02
      3.06614488e-02 9.63962264e-03 1.26280980e-02 5.91365919e-02
      1.58961210e-02 -2.32042931e-02 -5.07839881e-02 4.08457918e-03
      6.22827262e-02 4.49762866e-02 4.67811823e-02 5.38370535e-02
      6.22753873e-02 2.95919999e-02 -8.24076775e-03 -5.65286120e-03
      -3.06702405e-02 -3.61505039e-02 0. -8.12172773e-04 2.97676190e-04
      2.50730552e-02 1.78172980e-02 6.65000547e-03 1.27278436e-02
      9.66237783e-02 8.36527124e-02 6.49650097e-02 3.86458188e-02
      6.25368729e-02 6.35272935e-02 5.03766164e-02 5.01624495e-02
      1.02148853e-01 9.16221216e-02 1.30460724e-01 4.05136421e-02
      5.62820397e-02 5.72424904e-02 -2.62235645e-02 -2.59543881e-02
      -4.77484390e-02 -7.10651162e-04 2.41484260e-04 1.62770469e-02
      -3.83939445e-02 -8.43855515e-02 -8.33304822e-02 -2.91739721e-02
      -1.38457613e-02 -3.30744497e-02 5.17199226e-02 7.04215094e-02
      7.66352788e-02 7.61387348e-02 5.83205298e-02 3.59321833e-02
      1.08973645e-02 2.91505307e-02 9.56012830e-02 1.05814219e-01
      5.99880517e-02 1.07855931e-01 -4.80868630e-02 -8.11965242e-02
      -7.45221451e-02 -4.19881800e-03 -3.57259586e-02 -8.54878500e-02
      -8.72565582e-02 -8.90109763e-02 -1.41555341e-02 1.53616235e-01
      7.22383186e-02 1.39260078e-02 -1.96745116e-02 -2.44439878e-02
      9.15982388e-03 -2.14085262e-02 -1.21469907e-02 -4.31477465e-02
      -1.19238354e-01 -2.95753404e-02 -1.17388542e-03 1.71606913e-02
      5.17892838e-03 2.36276966e-02 5.31597473e-02 6.17103791e-03
      -2.42819171e-02 1.12620816e-02 -1.98297109e-03 -8.84657502e-02
      -3.35376970e-02 1.26015693e-02 -1.21824527e-02 1.10276386e-01
      5.82614504e-02 2.40990855e-02 -1.82900410e-02 3.99756879e-02
      1.16535284e-01 6.76529408e-02 2.07806118e-02 3.45633477e-02
      1.65372223e-01 1.26349375e-01 -9.06603783e-03 4.81758602e-02
      4.58468124e-02 -8.12705085e-02 -5.77406585e-03 2.89344490e-02
      2.00681742e-02 -8.61491822e-03 -2.09920947e-02 -9.63355973e-02
      -5.47351688e-02 -5.62629700e-02 -5.82006760e-02 4.76856977e-02
      -5.68957552e-02 -5.22890352e-02 -5.32787889e-02 -4.97927715e-04
      3.20471302e-02 -1.76301710e-02 -5.19126207e-02 -1.16196163e-01
      7.22554699e-02 7.75205866e-02 -2.70044953e-02 -3.87551300e-02
      -8.33903700e-02 -6.39157742e-02 1.70547031e-02 1.50702391e-02
      -2.74680965e-02 -5.21482490e-02 -3.28359939e-02 2.21670717e-02
      1.62365183e-03 -9.61453915e-02 -6.72231987e-02 -2.50598043e-02
      -1.36776594e-02 -4.57768477e-02 2.07132543e-03 2.13948730e-02
      3.13775837e-02 -1.26519904e-01 -1.12511113e-01 -5.48502170e-02
      8.30983594e-02 1.07468031e-01 3.33679728e-02 5.85844740e-02
      -6.55719563e-02 -1.03989780e-01 7.04045296e-02 4.32908311e-02
      -3.06946747e-02 -2.93407198e-02 6.76335841e-02 4.95689474e-02
      -1.22036330e-01 -1.27072260e-01 7.63001218e-02 -3.31101380e-02
      -1.52729712e-02 1.26073873e-02 -1.51960263e-02 -3.21212551e-03
      2.21001729e-02 -1.27820581e-01 -6.63583353e-02 -2.22292598e-02
      -9.33729708e-02 -2.06412897e-01 -1.17181361e-01 3.18033956e-02
      -1.65074930e-01 -1.41806439e-01 1.05714463e-02 1.25492066e-02
      6.41952176e-03 1.66683260e-03 9.54725593e-02 8.20935518e-02
      5.43616563e-02 1.72197387e-01 1.43860638e-01 1.46194860e-01
      5.75409941e-02 3.86149436e-02 1.04106395e-02 -2.01953878e-03
      9.96645913e-03 -1.25767335e-01 -1.38315007e-01 -9.39322263e-02
      -1.43363416e-01 -1.31744817e-01 -1.75197646e-01 6.41113147e-02
      -7.64995907e-03 -8.96629915e-02 -8.49931166e-02 -7.53609883e-03
      6.03611432e-02 7.54942279e-03 1.49772242e-01 1.40618861e-01
      1.07871912e-01 8.36312249e-02 -2.08698604e-02 1.08273484e-01
      1.38949424e-01 9.80449319e-02 2.20412314e-02 -4.59412001e-02
      -9.63005200e-02 -1.23453930e-01 -1.67799190e-01 -1.58559158e-01
      -1.37872010e-01 2.09715646e-02 3.68763134e-03 1.42705841e-02
      -8.04968029e-02 -1.42583221e-01 -3.77030745e-02 7.57138431e-02
      1.24638081e-01 2.06466988e-02 1.32037058e-01 1.91285893e-01
      1.83927000e-01 7.94623643e-02 -7.44566834e-03 1.12949096e-01
      1.95897579e-01 1.13629743e-01 -3.32421549e-02 -1.09636195e-01
      -9.33962837e-02 -1.26483917e-01 -1.22644760e-01 -1.29816189e-01
      -2.13340461e-01 -9.88086164e-02 -1.42218649e-01 -1.98684394e-01
      -1.43878967e-01 -9.69461054e-02 -4.01515774e-02 1.48891397e-02
      9.46901590e-02 2.02262178e-02 1.30228862e-01 2.65252203e-01
      3.32567006e-01 2.71348089e-01 2.15415925e-01 2.87513316e-01
      1.89592630e-01 2.42940336e-02 -8.75855312e-02 -1.35533676e-01
      -2.94171534e-02 -6.38186336e-02 -1.40200749e-01 -3.33406627e-02
      -1.37270987e-01 -1.19821265e-01 -2.66639024e-01 -1.38098344e-01
      -8.33854228e-02 -5.98058216e-02 -2.00946666e-02 4.72479723e-02
      1.15589581e-01 -5.83423078e-02 -5.56871966e-02 1.12195328e-01
      2.15010837e-01 1.64776474e-01 1.66090026e-01 2.39425808e-01
      1.50234997e-01 3.88868935e-02 2.44345590e-02 6.16607331e-02
      7.24209622e-02 -5.72923794e-02 -1.42133445e-01 -1.22970104e-01
      -5.56651317e-02 -6.34286404e-02 -1.21006116e-01 -1.06503084e-01
      -2.08820269e-01 -8.96084681e-02 -5.13089029e-03 1.41535178e-01
      1.61696523e-01 -8.62298235e-02 -4.16422002e-02 5.37450239e-02
      2.92877167e-01 4.08899903e-01 2.76408166e-01 1.74680471e-01
      3.57442722e-02 -6.56036809e-02 6.76158890e-02 5.09611517e-02
      7.49068484e-02 1.69340484e-02 -3.57289128e-02 4.12007933e-03
      -2.57883072e-02 -1.00148857e-01 -1.81928784e-01 -6.86343089e-02
      -8.91899411e-03 1.62465516e-02 9.61915776e-03 1.09081157e-01
      1.16647027e-01 -9.02941823e-02 -1.18750438e-01 -8.83406848e-02
      7.80683830e-02 1.14449136e-01 3.89978103e-02 1.30209816e-03
      -1.43116429e-01 -2.60218047e-02 1.21552840e-01 7.89729208e-02
      4.72136326e-02 -9.34300944e-03 -3.10930237e-02 -3.54100578e-02
      -1.46857709e-01 -2.37274438e-01 -2.73023903e-01 -1.06813051e-01
      -9.39957649e-02 -3.41524743e-02 -4.90280315e-02 6.25077114e-02
      6.17282726e-02 -1.23927100e-02 -2.02819705e-02 1.19335214e-02
      2.78448518e-02 6.79060370e-02 4.89692874e-02 -2.07161512e-02
      5.39321080e-03 5.80641069e-02 1.16931893e-01 7.48597383e-02
      4.28743921e-02 7.58258104e-02 4.83037978e-02 -5.06574214e-02
      -1.51736245e-01 -1.42332613e-01 -9.97348204e-02 -2.62696773e-01
      -1.74532115e-01 -6.95228055e-02 8.93967412e-03 1.84896830e-02
      3.01958192e-02 0. 9.39527526e-03 6.36574551e-02 2.75895800e-02
      1.91544648e-02 1.54181466e-01 1.36311263e-01 4.27099727e-02
      3.54179442e-02 5.68139777e-02 4.62022573e-02 9.67645645e-03
      2.78036054e-02 1.45010566e-02 7.23870620e-02 5.88320382e-03
      -1.49548063e-02 -7.74538219e-02 -1.40953884e-01 -1.28541738e-01
      -6.46218425e-03 2.52276715e-02 2.89511438e-02 5.49019640e-03 0.
      -1.96078443e-03 -3.61222737e-02 -2.22377945e-02 -1.06000051e-01
      -1.32678211e-01 -7.98474252e-02 -8.90954398e-03 -2.76853051e-02
      -4.15093936e-02 -4.38463204e-02 -3.65964882e-02 4.00060415e-02
      3.05043571e-02 3.82236429e-02 -2.42491048e-02 6.06957590e-03
      -1.02115467e-01 -1.33659124e-01 -9.32408571e-02 -7.03975558e-02
      1.26106720e-02 4.62089330e-02 0. 0. 0. -9.01987124e-03
      -3.98297198e-02 -5.55268452e-02 -7.25471526e-02 -1.50512978e-01
      -1.57699928e-01 -1.81503817e-01 -1.98434353e-01 -1.50515094e-01
      -1.17259793e-01 -1.15264416e-01 -1.25877574e-01 -1.55863464e-01
      -1.55693457e-01 -1.06678374e-01 -1.15611665e-02 -2.34369356e-02
      -1.67039186e-02 4.61088568e-02 5.03593720e-02 0. 0. 0. 0.
      -9.61374957e-04 -1.47897173e-02 -3.79453152e-02 -1.02544732e-01
      -1.30765542e-01 -1.10976256e-01 -1.06593937e-01 -1.12669699e-01
      -1.04082257e-01 -7.98501000e-02 -4.00951691e-02 -2.79492494e-02
      -9.41762887e-03 3.53873558e-02 6.01920076e-02 9.01281461e-02
      9.92149040e-02 4.63724881e-02 3.13725509e-03 0. 0. 0. 0. 0. 0. 0.
      0. 0. 0. 0. 0. 1.17647070e-02 3.60784307e-02 4.54901978e-02
      4.54901978e-02 4.54901978e-02 4.00000028e-02 5.49019640e-03 0. 0.
      0. 0. 0. 0. 0. 0.</_>
    <_>
      0. 0. 0. 0. 0. 0. 0. 0. -5.80543280e-03 -8.86092428e-03
      -8.86092428e-03 -8.86092428e-03 -4.72041406e-03 3.85131389e-02
      6.86274543e-02 7.13725537e-02 6.94117695e-02 4.19607870e-02
      1.96078443e-03 0. 0. 0. 0. 0. 0. 0. 0. 0. -5.49988402e-03
      -2.04717908e-02 -3.48326005e-02 -3.89575101e-02 -3.89575101e-02
      -3.89575101e-02 -3.89575101e-02 -1.97418220e-02 3.47679816e-02
      6.06503412e-02 6.10424913e-02 5.43903597e-02 1.67470742e-02
      -2.44439300e-03 0. 0. 0. 0. 0. 0. 0. 0. 0. -2.35272814e-02
      -3.86519618e-02 -3.89575101e-02 -3.89575101e-02 -3.89575101e-02
      -3.89575101e-02 -3.28043774e-02 -8.33739247e-03 -4.57677431e-03
      -2.50245305e-03 -7.68735539e-03 -4.99813259e-02 -6.04770370e-02
      -3.89575101e-02 -3.77353169e-02 -1.87912714e-02 -6.11098250e-04
      3.39471502e-04 1.93983712e-03 4.99508111e-03 6.74093422e-03 0.
      7.84313772e-03 9.11390781e-02 6.15008101e-02 5.59444502e-02
      3.48003656e-02 3.97772975e-02 7.20544681e-02 2.39409562e-02
      2.88356747e-03 1.89170055e-02 6.23058975e-02 4.38712463e-02
      1.00837220e-02 2.88541187e-02 2.45369896e-02 5.58067746e-02
      3.25403698e-02 7.12484941e-02 8.91811624e-02 1.10884428e-01
      3.22510116e-02 3.32078002e-02 2.18504407e-02 0. 1.84589382e-02
      1.18229240e-01 1.15053445e-01 6.29867613e-02 3.17527330e-03
      -4.52475362e-02 -9.55130309e-02 -8.88623223e-02 -2.44337413e-02
      3.42346132e-02 4.07990478e-02 3.80516127e-02 -2.25783940e-02
      -9.12130252e-02 -1.28195316e-01 -8.70028958e-02 -1.17754370e-01
      -2.24225335e-02 2.56506894e-02 1.24316983e-01 7.03830197e-02
      2.71851402e-02 1.02515072e-02 0. 1.08186482e-03 6.61753565e-02
      2.86009517e-02 1.82599202e-02 3.39380186e-03 -5.40422872e-02
      -6.36431500e-02 -1.02820665e-01 -8.14676732e-02 -7.43522272e-02
      1.96363796e-02 -4.99437191e-02 -4.91545303e-03 -2.94878222e-02
      -2.87820213e-02 -2.02584751e-02 5.70778642e-03 -4.89083864e-02
      -8.61023292e-02 9.89693124e-03 7.82350451e-02 2.94634216e-02
      3.96701470e-02 0. -8.12378526e-03 5.42803295e-02 -4.38093301e-03
      -9.15996507e-02 -7.81449080e-02 3.32856029e-02 7.97127336e-02
      6.43718615e-02 1.07257497e-02 3.82931437e-03 2.95785256e-02
      2.74138656e-02 3.62400413e-02 1.52094569e-02 -1.81331746e-02
      -5.05034551e-02 -1.09382086e-01 -5.36799245e-02 -7.19103124e-03
      1.56188607e-01 2.15464771e-01 9.14566293e-02 6.05449378e-02
      5.71258850e-02 1.08361607e-02 5.90517707e-02 -6.78475667e-03
      -1.06826581e-01 -1.23050071e-01 -2.48493273e-02 -3.67130414e-02
      -1.78059593e-01 -1.45302638e-01 -9.18177962e-02 -8.69600102e-02
      -7.36848861e-02 3.61608714e-02 1.04080439e-01 6.34581447e-02
      1.21526137e-01 6.58861920e-02 -6.45732507e-02 -5.63469268e-02
      2.07315698e-01 1.98550195e-01 3.12592722e-02 -1.39750764e-02
      2.87671629e-02 -7.40749687e-02 1.09042423e-02 -3.60422358e-02
      -1.07471175e-01 -8.31038207e-02 -5.70166018e-03 3.29881757e-02
      -4.19370010e-02 -5.97641319e-02 -1.16417430e-01 4.48648259e-02
      1.38181761e-01 2.44890288e-01 1.42431110e-01 -7.11838976e-02
      5.75751774e-02 2.03758702e-02 -4.08081822e-02 -7.40218312e-02
      9.03202146e-02 7.88485035e-02 -4.46540490e-03 2.37513091e-02
      1.21246465e-02 -9.09634456e-02 -3.46916430e-02 4.40216288e-02
      4.08725906e-03 -2.31103953e-02 5.95808364e-02 6.73662946e-02
      5.97968744e-03 -1.47128562e-02 9.56621319e-02 1.31822512e-01
      1.22277029e-01 1.70466185e-01 2.69420017e-02 -3.50775793e-02
      1.11016743e-01 4.54404391e-02 -1.00839138e-01 -4.75339778e-02
      6.48025572e-02 -9.02554393e-03 -1.78335980e-01 -1.21287480e-01
      1.97229907e-02 -2.86027584e-02 1.11999325e-02 -1.09613650e-02
      -9.95720625e-02 -1.89163297e-01 -3.44561040e-02 5.92060387e-02
      6.55278563e-02 -1.93244033e-02 1.92977209e-02 7.84301460e-02
      1.43228933e-01 1.39010504e-01 -1.09887518e-01 -2.21164152e-01
      -1.05764963e-01 -1.15715146e-01 -1.36393383e-01 -7.73947462e-02
      -4.79967194e-03 -6.41990378e-02 -1.15553766e-01 -5.06633893e-02
      2.36687921e-02 1.25233280e-02 8.49213749e-02 3.17736939e-02
      -5.73772751e-02 -6.68614432e-02 1.83371864e-02 9.90493968e-02
      1.86932176e-01 7.60888904e-02 -1.87631254e-03 1.31788567e-01
      1.79412022e-01 1.55450910e-01 1.10927217e-01 1.82419091e-01
      7.90558308e-02 -5.88731207e-02 -1.47711515e-01 -1.39466792e-01
      -1.19747132e-01 -1.43126145e-01 -1.28156707e-01 -6.15937337e-02
      8.09434336e-03 -1.47271855e-02 1.92775093e-02 -1.15137808e-01
      -2.49625713e-01 -2.61706173e-01 -8.56423527e-02 1.17874637e-01
      1.15647428e-01 -5.13370335e-02 -9.21706110e-02 -2.94173881e-02
      -1.55619904e-02 7.84861892e-02 1.20600209e-01 1.28491729e-01
      1.12095371e-01 -9.49567556e-02 -1.54124215e-01 -1.30346820e-01
      -1.53150549e-02 1.07672960e-01 9.95267332e-02 1.07875980e-01
      -2.98025534e-02 -1.10359982e-01 -9.31132808e-02 -7.66092613e-02
      -1.32083774e-01 -2.14345261e-01 -1.17319643e-01 -6.14757799e-02
      -6.08443432e-02 -1.39166294e-02 3.65259871e-02 1.50777608e-01
      4.75549176e-02 3.73823121e-02 1.02455571e-01 -2.44811140e-02
      -6.07011169e-02 -2.07113668e-01 -2.83611268e-01 -1.95025295e-01
      -2.77056135e-02 -5.45012243e-02 -1.09050982e-01 2.49614753e-02
      6.66698953e-03 -5.64860888e-02 8.02032009e-05 3.28071453e-02
      -2.33726110e-02 -1.95583686e-01 -1.24942586e-01 -6.06816374e-02
      -4.98758703e-02 -5.23205623e-02 2.13074703e-02 -2.15458609e-02
      -7.43249059e-02 1.71673432e-01 1.58873871e-01 1.02142468e-01
      7.19106346e-02 3.14732715e-02 -2.74986792e-02 2.63195895e-02
      7.19174594e-02 8.43095407e-02 8.37093815e-02 8.57900903e-02
      1.93090905e-02 -4.13872935e-02 -2.48801913e-02 -3.54375131e-02
      -8.01256746e-02 -1.57931969e-01 -5.43009564e-02 -2.25498267e-02
      -6.16198070e-02 -2.31929570e-02 1.21824071e-02 1.09187039e-02
      -1.29308952e-02 -4.91369404e-02 -8.70446265e-02 -8.31903815e-02
      -1.34713631e-02 -5.61373197e-02 -9.40621495e-02 -2.13714968e-02
      5.87348454e-03 -1.63627222e-01 -1.87603191e-01 -3.32216062e-02
      -1.29903853e-01 -1.55912310e-01 -1.75107911e-01 -5.42681850e-02
      -4.93784882e-02 -8.31973329e-02 -1.31281510e-01 -1.54463232e-01
      -2.11365074e-01 -8.93128067e-02 -1.09200738e-03 -7.77627295e-03
      -1.31516103e-02 1.24280855e-01 1.43746153e-01 1.45209730e-01
      1.94873869e-01 9.23492461e-02 1.14059856e-03 -1.21172182e-02
      -3.10110599e-02 -1.08030111e-01 -7.15580136e-02 -4.08958271e-03
      -3.97047289e-02 -7.09004104e-02 -2.33043320e-02 1.39587163e-03
      -8.47293660e-02 -1.74126819e-01 -7.06661046e-02 -3.86193246e-02
      -4.11470002e-03 -2.70902868e-02 3.18095013e-02 1.68618765e-02
      -7.70718679e-02 3.99878919e-02 3.74661833e-02 2.28493791e-02
      1.61560610e-01 1.18511766e-01 -2.96067279e-02 -7.17260092e-02
      -1.78824347e-02 -6.13934062e-02 -4.41819988e-02 9.17934626e-03
      2.47837082e-02 -8.64222925e-03 -1.63613632e-02 -8.75712037e-02
      -2.12553740e-01 -3.26795548e-01 -2.76949257e-01 -9.08741802e-02
      -3.95655669e-02 -2.20466983e-02 3.65752317e-02 6.23489805e-02
      3.63630354e-02 1.54249623e-01 1.28815725e-01 7.92049021e-02
      7.61709884e-02 -6.25899658e-02 -1.75417587e-01 -1.32867858e-01
      2.33908202e-02 6.02930635e-02 3.48724909e-02 7.76195079e-02
      -3.27096297e-03 -2.43833344e-02 2.82817967e-02 -1.02149947e-02
      -6.64001703e-02 -1.08295858e-01 -1.22920804e-01 -6.27058670e-02
      -5.08835539e-02 -3.36136408e-02 6.67167595e-03 4.67250645e-02
      1.63909551e-02 4.01421599e-02 -2.96303676e-03 9.51664429e-03
      7.27661774e-02 6.43150061e-02 5.45742959e-02 6.06609546e-02
      8.57151970e-02 3.87522541e-02 -1.03235606e-03 3.51780746e-03
      -2.35266038e-04 -1.17204792e-03 4.89811413e-02 6.06626719e-02
      6.56828508e-02 1.42547078e-02 -5.38696870e-02 -5.52291758e-02
      -5.52291758e-02 -6.06141798e-02 -5.50682023e-02 4.50781372e-04
      1.24001550e-02 -4.00590338e-02 -5.21276109e-02 -4.90941182e-02
      1.15634296e-02 1.76192373e-02 2.78130900e-02 6.92944601e-02
      1.23684309e-01 6.84882626e-02 2.28652507e-02 1.06366854e-02 0.
      -3.60885781e-04 -3.36826732e-03 -5.46140503e-03 -6.13505812e-03
      -6.13505812e-03 -5.99070406e-03 -5.10051940e-03 -1.51572027e-03
      -3.16340523e-03 -2.18874477e-02 -2.05090158e-02 -2.04910766e-02
      -2.08174903e-02 -4.39163251e-03 -7.84220101e-05 0. 0. 0. 0. 0. 0.
      0. 0. 0. -4.01786156e-03 -5.72605478e-03 -6.13505812e-03
      -6.13505812e-03 -6.13505812e-03 -6.13505812e-03 -6.13505812e-03
      -6.29190216e-03 -1.08403787e-02 -1.95251983e-02 -2.14675907e-02
      -1.77223142e-02 -1.65993907e-02 -1.44477915e-02 -6.84085628e-03
      -6.13505812e-03 -6.13505812e-03 -6.13505812e-03 -6.13505812e-03
      -6.13505812e-03 -5.99070406e-03 -4.83586965e-03 -2.88708630e-04 0.
      0. 0. 0. 0. 0. 0. 0. 0. -1.96055043e-03 -1.16848797e-02
      -2.77090278e-02 -2.33664121e-02 -1.41943833e-02 -3.45056830e-03
      -7.84220101e-05 0. 0. 0. 0. 0. 0. 0. 0.</_>
    <_>
      0. 0. 0. 0. 0. 0. 0. 0. 0. 0. 0. 0. 1.33266952e-03 1.56958867e-02
      2.59130187e-02 2.69495398e-02 2.62091663e-02 1.58439614e-02
      7.40371936e-04 0. 0. 0. 0. 0. 0. 0. 0. 0. 0. 0. 0. 0. 0. 0. 0.
      7.25564547e-03 2.78379861e-02 3.76108959e-02 3.77589688e-02
      3.21321450e-02 1.24382488e-02 0. 0. 0. 0. 0. 0. 0. 0. 0. 0. 0. 0.
      0. -6.42484054e-02 -6.42484054e-02 -6.42484054e-02 -6.36561066e-02
      -5.34389764e-02 -3.22643369e-02 -2.64894366e-02 -2.95989960e-02
      -4.55910303e-02 -6.26195893e-02 -6.42484054e-02 -6.42484054e-02
      -6.42484054e-02 -4.58557270e-02 9.18507692e-04 5.24861505e-03
      1.35151846e-02 1.82389375e-02 0. 7.49334600e-03 9.55401585e-02
      9.51760933e-02 8.30630437e-02 5.69728091e-02 -2.26899125e-02
      1.09675946e-02 1.41587481e-03 1.39826471e-02 4.13968675e-02
      4.59252149e-02 4.03007343e-02 2.01606308e-03 1.80323068e-02
      3.78899500e-02 6.41483516e-02 -3.22072320e-02 -5.61296456e-02
      3.65960528e-03 1.11498348e-01 2.95923073e-02 2.40359120e-02
      3.06711830e-02 -1.63124851e-03 1.36391427e-02 9.94634107e-02
      1.06378041e-01 2.75988840e-02 -1.87122710e-02 -2.91366912e-02
      2.44217571e-02 -3.45495194e-02 -2.01600865e-02 2.59372182e-02
      4.05125618e-02 2.19450463e-02 7.80492090e-03 -5.87550551e-02
      -9.46650654e-02 -3.08352895e-03 6.87045082e-02 2.10260954e-02
      7.90199544e-03 8.20080861e-02 7.95332622e-03 -1.01504829e-02
      -8.15327396e-04 -1.29220483e-03 3.93834291e-03 4.61810753e-02
      3.11380047e-02 -5.44422865e-02 -5.12927063e-02 1.82278305e-02
      1.96682755e-02 -8.97020996e-02 -1.14050440e-01 -2.72594597e-02
      8.64326879e-02 -2.47651376e-02 9.68264230e-03 -2.50997748e-02
      -7.10208863e-02 6.36570854e-03 -5.35989031e-02 9.11686569e-02
      3.76983024e-02 6.41054362e-02 -2.05116682e-02 -4.15184870e-02
      -3.41047011e-02 3.13294266e-04 -7.39808939e-03 5.74810989e-02
      -1.42887095e-02 -9.78206173e-02 -2.22888812e-02 -2.97713894e-02
      -2.34731361e-02 7.14514107e-02 7.21280277e-02 -3.29260081e-02
      -6.34372905e-02 -4.68403623e-02 -2.02012267e-02 -6.74730316e-02
      -9.39844400e-02 -6.30294755e-02 3.06994095e-02 9.44556743e-02
      5.46327941e-02 1.16745241e-01 1.24593362e-01 1.44243807e-01
      1.00282274e-01 7.47755840e-02 4.29389812e-02 1.84659883e-01
      1.35698393e-01 -8.07577092e-03 -4.71831597e-02 4.51871380e-02
      1.01936832e-01 8.90463998e-04 -6.10528328e-02 -6.20002635e-02
      -1.19729750e-02 -5.01300506e-02 5.52418232e-02 2.66032219e-02
      -1.15905635e-01 3.60996798e-02 5.08934483e-02 -2.17959043e-02
      3.67734917e-02 1.17135949e-01 4.61884625e-02 1.09826317e-02
      -2.64620502e-03 3.84149514e-02 6.74226210e-02 1.32375315e-01
      8.21699873e-02 -3.19605470e-02 -2.97592971e-02 -3.22678965e-03
      -2.09826268e-02 -1.30958050e-01 -1.54946178e-01 -1.45683900e-01
      -5.52758351e-02 1.45408818e-02 1.09861046e-01 1.62145421e-02
      -9.14955214e-02 5.21306023e-02 5.50860800e-02 -2.86141858e-02
      -6.73093498e-02 -1.60926823e-02 1.12065813e-02 1.28928917e-02
      7.94176683e-02 5.70959784e-03 2.08018273e-02 1.24167874e-01
      8.36438909e-02 1.43696656e-02 -9.85363498e-03 4.82586026e-02
      1.41160358e-02 -7.29849562e-02 -7.26684034e-02 -3.30740027e-02
      1.18186079e-01 1.50318176e-01 2.17319980e-01 4.81887050e-02
      -1.98834892e-02 6.62174299e-02 8.28881562e-02 5.54962158e-02
      6.91069886e-02 1.35877624e-01 7.29699852e-03 -1.63414758e-02
      8.22339132e-02 6.54924512e-02 6.76566064e-02 9.25929844e-02
      6.16448820e-02 3.39341629e-03 -3.12586837e-02 -1.53295211e-02
      -7.16930330e-02 -4.49565016e-02 -1.06620476e-01 -1.03179410e-01
      5.91602027e-02 1.01995483e-01 8.14063698e-02 -7.56173804e-02
      -1.26587391e-01 -1.05507173e-01 -1.79947808e-01 -1.62980214e-01
      -1.04380772e-01 -2.42441837e-02 1.53373638e-02 3.97086889e-02
      6.68175668e-02 6.55111670e-02 8.76986906e-02 1.67381570e-01
      9.85664278e-02 1.27962558e-02 -1.25862025e-02 -8.59413072e-02
      -1.04625590e-01 -8.15670639e-02 -1.82900980e-01 -1.79880440e-01
      2.03864388e-02 -4.73988540e-02 6.84884638e-02 8.19564536e-02
      -6.10647723e-03 4.52629291e-03 -2.35002652e-01 -2.93350309e-01
      -1.51657552e-01 -8.09551701e-02 5.95507808e-02 7.38837942e-02
      8.13470036e-03 9.42382682e-03 1.61801707e-02 1.01564452e-01
      -6.42684475e-03 -8.44006017e-02 -5.90928644e-02 1.65656563e-02
      -2.53966060e-02 -4.71760072e-02 -1.11162037e-01 -1.38488978e-01
      -1.47160497e-02 1.78542793e-01 2.93187141e-01 2.58724481e-01
      1.41361877e-01 7.15915486e-02 -9.55104828e-02 -8.59255046e-02
      -9.45772044e-03 2.15728469e-02 5.88948540e-02 -1.40704899e-04
      8.40053484e-02 -6.42803535e-02 -9.37594995e-02 -4.70362045e-02
      -7.57557228e-02 -1.80305377e-01 -2.08242819e-01 -5.31610698e-02
      -6.32205978e-03 -4.94222948e-03 7.97255859e-02 1.51714444e-01
      1.39578044e-01 4.87114824e-02 7.38742622e-03 7.51967281e-02
      6.69808239e-02 1.00174829e-01 -6.70244768e-02 -2.21654326e-01
      -1.78110018e-01 -8.70638117e-02 -9.85509232e-02 -5.78396581e-02
      1.46254171e-02 -3.68580371e-02 -1.14239447e-01 -6.95458800e-02
      -6.78216368e-02 -1.74134955e-01 -1.49183244e-01 6.44760486e-03
      8.42991471e-02 6.57047704e-02 4.19535227e-02 7.99497142e-02
      6.13667257e-02 2.22977833e-03 3.88731472e-02 -3.03179375e-03
      -8.01738054e-02 -3.21070440e-02 -4.22046930e-02 -2.06179932e-01
      -2.64060438e-01 -1.67485580e-01 -3.99907045e-02 1.47845671e-02
      5.13248816e-02 -8.93771723e-02 -8.42555091e-02 3.78892012e-02
      9.44478661e-02 2.36145463e-02 -7.84713179e-02 3.21914665e-02
      1.45947203e-01 1.46206066e-01 1.38010830e-01 6.83020055e-02
      1.51752662e-02 -4.28427756e-02 6.30968660e-02 1.32903501e-01
      1.53982714e-01 1.33840933e-01 -1.03722280e-02 -1.28282219e-01
      -6.90593570e-02 -9.34003964e-02 -1.01581879e-01 2.24048784e-03
      -4.36404580e-03 -1.37780696e-01 -1.57179937e-01 -1.36595920e-01
      1.43817132e-02 9.05870344e-04 -1.00836486e-01 -1.43542275e-01
      -9.21652094e-02 1.00673074e-02 1.21827684e-01 7.49083236e-02
      -3.92414816e-02 -6.97306991e-02 4.44162488e-02 6.07263334e-02
      2.65871342e-02 3.14691477e-02 -1.50403589e-01 -1.85527980e-01
      -9.63120982e-02 -5.86816370e-02 -8.24460685e-02 -1.08867317e-01
      5.78595400e-02 -3.16275097e-02 -4.44821790e-02 -5.59420791e-03
      -3.14787626e-02 -2.09613532e-01 -1.56637400e-01 1.06399627e-02
      4.99177054e-02 6.80979863e-02 4.43053693e-02 4.50076684e-02
      1.64151248e-02 -7.84811005e-02 1.60847846e-02 1.33049354e-01
      1.30437538e-01 8.88254270e-02 -1.57398861e-02 -7.54372403e-03
      -3.86315212e-02 -7.18251094e-02 -1.55173197e-01 -3.28953341e-02
      8.62977058e-02 -1.30488962e-01 -1.92191839e-01 -1.03819951e-01
      -8.58118832e-02 -2.11647838e-01 -3.56800705e-01 -2.45003775e-01
      -1.08441509e-01 -7.61198699e-02 -7.58202970e-02 2.30134036e-02
      7.63004124e-02 1.30143045e-02 7.59197921e-02 1.50662303e-01
      1.25070870e-01 1.65489078e-01 5.25102280e-02 2.89589353e-02
      4.48220894e-02 1.36873731e-02 1.35053694e-01 2.10568056e-01
      1.91225946e-01 -4.70227674e-02 -5.36437519e-02 -2.44795009e-02
      -2.45514940e-02 -3.73041406e-02 -5.96141964e-02 -3.71749513e-02
      -8.52066502e-02 -1.35158017e-01 -7.05160201e-02 -1.00355148e-02
      5.59606683e-03 -8.96530133e-03 3.64374625e-03 -1.07694246e-01
      -1.14801481e-01 8.69193822e-02 1.31217644e-01 1.21658966e-01
      1.38266623e-01 1.98881626e-01 1.25634268e-01 9.56573784e-02
      8.76648352e-02 0. -2.04033498e-02 4.34145443e-02 3.88030484e-02
      -9.41873528e-03 -2.52651218e-02 -4.02959958e-02 -6.62832931e-02
      -8.30005333e-02 -8.14996362e-02 -6.27245009e-02 -3.48808616e-02
      -1.87481027e-02 -1.93890482e-02 -2.06850539e-03 -3.33524472e-03
      7.72758722e-02 1.08094752e-01 1.11947611e-01 1.20414294e-01
      1.72074303e-01 1.20940566e-01 9.40320343e-02 8.76648352e-02 0.
      -8.02673846e-02 -1.34206474e-01 -1.45623595e-01 -1.30006179e-01
      -1.15009993e-01 -1.19420946e-01 -1.27129003e-01 -1.20724931e-01
      -1.31071240e-01 -1.15519524e-01 -1.04020782e-01 -1.08655982e-01
      -1.13349371e-01 -9.29847509e-02 -8.11610296e-02 -7.90325031e-02
      -7.65703470e-02 -5.40048592e-02 -2.38461178e-02 -4.90511395e-03 0.
      0. 0. 0. -4.23801877e-02 -9.21678916e-02 -1.05879873e-01
      -1.06224731e-01 -1.03710569e-01 -1.03017002e-01 -1.00242756e-01
      -9.42819193e-02 -8.66693407e-02 -7.28977248e-02 -6.92083612e-02
      -6.89482763e-02 -6.89482763e-02 -6.59708604e-02 -4.95871156e-02
      -1.51025876e-02 -5.29235974e-03 0. 0. 0. 0. 0. 0. 0. 0. 0. 0. 0.
      0. 0. 0. 0. 0. 0. 0. 0. 0. 0. 0. 0. 0. 0. 0. 0. 0. 0. 0.</_>
    <_>
      0. 0. 0. 0. 0. 0. 0. 0. 0. 0. 0. 0. 1.38252228e-03 1.62830409e-02
      2.68823784e-02 2.79576741e-02 2.71896049e-02 1.64366551e-02
      7.68067956e-04 0. 0. 0. 0. 0. 0. 0. 0. 0. 0. 0. 0. 0. 0. 0. 0.
      7.52706639e-03 2.88793538e-02 3.90178524e-02 3.91714647e-02
      3.33341509e-02 1.29035413e-02 0. 0. 0. 0. 0. 0. 0. 0. 0. 0. 0. 0.
      0. 0. 0. 0. 6.14454388e-04 1.12137925e-02 3.31805386e-02
      3.91714647e-02 3.59455831e-02 1.93553139e-02 1.68974954e-03 0. 0.
      0. 0. 1.69607811e-03 9.69187450e-03 2.49565784e-02 3.36792655e-02
      0. -6.75445364e-04 1.53078660e-02 6.31632842e-03 -9.36122239e-03
      -2.38860156e-02 -1.12015205e-02 1.79773681e-02 1.25596803e-02
      3.02529242e-02 8.10200125e-02 6.28849640e-02 2.62248535e-02
      -1.03842812e-02 -2.88424846e-02 -5.74491732e-02 -6.37751594e-02
      -6.91862255e-02 1.11724362e-02 3.84219512e-02 5.19011989e-02
      3.53504233e-02 3.67358401e-02 5.23291230e-02 0. 2.93618813e-03
      3.65147181e-02 4.52706926e-02 3.53569463e-02 7.74108106e-04
      -2.10179873e-02 -6.16840981e-02 -5.96274100e-02 -4.80587333e-02
      3.23743038e-02 -1.00553278e-02 -4.84753102e-02 -5.56782410e-02
      -4.77106050e-02 -6.15736209e-02 -2.88027693e-02 -1.18070899e-03
      1.23734847e-01 1.04843572e-01 1.24483682e-01 9.12905112e-02
      4.29878309e-02 3.10613457e-02 0. 4.93316492e-03 5.03399409e-02
      7.30546862e-02 5.88625036e-02 2.98882592e-02 1.30518470e-02
      -5.71897216e-02 2.49797590e-02 -1.93705801e-02 -1.52176917e-02
      3.04717366e-02 6.08115830e-02 9.40219238e-02 1.81023199e-02
      -4.13314663e-02 -1.58346742e-01 -1.80235490e-01 5.25281765e-02
      6.40955642e-02 9.32396129e-02 5.71383014e-02 1.61598921e-02
